-0.00482106622850068
0.000614636162587191
-0.00296462016602829
0.00298438528380774
0.000821727396633858
-0.000194553659335854
-0.00144713112338443
0.00382750030788938
0.00312067609595812
0.00238376170472083
-0.00315017627174821
0.00346966317555527
0.00203477462512368
0.000130833279629191
-0.0018946487901206
-0.00468831543744518
-0.00394963103566049
-0.0013102503077183
-0.00340918781518546
-0.00322953174462359
0.00472224063960388
-0.000524955628185234
-0.00368206444124407
-0.00478802603161584
-0.00474702078726744
-0.00118044953424176
0.000306064323822518
0.000688091600304607
0.000983683361721626
0.00103589867287014
-0.00322628672528672
0.00157604689158729
-0.000475690334615718
-0.00142943101791037
-0.00428180301505731
0.00104091370275446
0.00273864881947598
0.00292508993046958
0.000192193645272649
-0.00191441390790001
0.00363427415646409
0.00219112555681132
0.00440688376040741
0.00411512702184299
0.000380404766813628
-0.00345727310172332
-0.000366539684192269
-0.00255840274539831
0.00350152336540855
-0.00280708922730908
0.00270324860852782
0.00332186729484674
0.00480218611599506
0.00483021128299569
0.00107778892249211
-0.00103973369572286
-0.00225986096640232
-0.00195954917685886
0.00328794209268808
-0.00460364993292755
-0.00119991965026321
-0.00393783096534445
0.00171292770725344
-0.00428976806252062
-0.00474820079429911
0.00404816162279951
-0.00216634540914764
-0.00219525558142193
0.000849752563634477
0.0018480385123722
0.00326345694678234
0.00218935554626393
-0.000145583367524255
-0.00284809447165741
0.00235603153947811
-0.000304884316790917
-0.000406364921508928
0.00434168837191116
0.00236281657990985
-0.00378649506354118
0.000957428205268428
-0.00110935411058756
0.00227166103671837
0.00105330377658632
0.000699891670620651
-0.00134034048702419
-0.00336818257083724
-0.0026572283342952
-0.000723491811252754
0.00292774494629064
0.000165348485303634
0.00473640072398305
0.00243155198950083
-0.00149285639585913
-0.00319973656707557
0.00152058656110187
-7.83229667227726e-05
-0.00421896764062428
0.00193093400634246
4.64627768694417e-05
-0.00340741780463812
0.00434581839652185
-0.00346464814567089
0.00391600083525977
0.00186455861081467
-0.00190379384461552
-0.000709921730389298
-0.00415288724685445
0.00451042937743065
0.00177074805180209
-0.00335195747415262
0.00364666423029593
0.00310946602915785
0.000793112226117442
-0.002983500278534
-0.0031135960537684
0.00306610077074635
-0.000239098924778942
-0.0033295373405521
3.79077258903062e-05
0.00224275086444408
-0.000912587938067432
-0.00213065019644157
0.000664491459672507
0.00176160299730714
0.00247314723736485
0.00214510528257874
-0.000238803923021037
-0.00364400921447486
-0.00127780011434916
0.00323513677802374
-0.0044939092789882
0.000164463480029929
0.00157545688807147
-0.000713166749726202
-0.00382130527097344
0.00434345838245862
0.00407323677222114
0.000478935353952627
-0.00148872637124852
-0.00027331912869548
-0.00120847470124234
0.003354022486458
-0.00177015804828629
-0.000424360028740902
-0.00220499063943267
0.00466855031966585
-0.00195453414697455
0.00231207627755084
0.000650331375293244
-0.00293866001133305
0.0025259525520292
0.00328115705225633
-0.000989288395121751
8.70255185808627e-06
0.00377144997388822
-0.00456765971846362
0.00478124099118411
0.000701661681168051
-0.00434493339124816
0.000302819304485605
-0.00295724512208082
0.00331596725968871
0.00122528980144271
0.0015235365786809
-0.0029206649041011
0.00330741220870957
-0.00364105919689582
-0.00377056496861447
0.00235013150432008
-0.00179729821001319
0.00426351290606742
-0.00206781482200864
-0.0015822419285032
-0.00347733322126063
0.00225307592597063
0.00323454677450792
0.00201058448097578
0.000968933273826559
0.00238966173987883
-0.00239025174339466
-0.00343662297867028
-0.00481752620740598
-0.00424345278653012
0.00296019513965987
0.00340859781166973
-0.00279764917105626
-0.00371569464164488
0.000514335564900785
-0.00469539547963493
-0.00373339474711895
-0.000439700120151769
0.00243804202817467
0.00179936322231852
0.000419935002372395
-0.00411896204469575
-0.000611686145008189
-0.00288113466854236
0.00189671380242591
-0.00202651457590246
-0.000611981146766093
-0.00258642791239899
0.000752696985284964
0.000314914376559553
0.00124387491219052
-0.00328469707335117
3.9972738195615e-05
0.00447591417175641
0.00189228877605741
0.00410627696910605
-0.00299707035939742
-0.00158578194959803
-0.00310917102739993
0.00478655102282623
-0.00041137995139325
0.00481398618631106
-0.00389063068408028
0.00120994971003184
-0.00392072086338616
-0.000601951086997445
0.00417117735584427
-0.00436499351078543
0.00381452023054181
-0.00202975959523939
-0.00263598820772641
0.00260088299853614
-0.000863027642740023
-0.00288083966678439
0.00123797487703251
0.00100669349883791
-0.000467725287152386
-0.000325239438086096
0.000945628134952368
0.00130228526025494
0.00342954293648068
0.0031782014387488
0.00120611468717915
0.00213537022456802
0.000635581287398184
-0.00120699969245284
-0.00305194068636712
0.00229968620371901
0.000532920675648557
0.00391570583350187
-0.00248553731119678
-0.0030068054174082
0.00101229853223805
0.00191883893426851
0.000817892373781139
-0.00143739606537371
-5.35428190590717e-05
-0.00405612667026287
0.00232712136720377
0.00108309895413433
0.00116363443404136
0.00184744850885637
0.00294367504121735
-0.0033917827114693
0.000734996879810886
0.00355462368183082
0.00397824620617687
0.00110876410707174
0.00220086061482207
-0.00441543881138652
0.00162177216406196
0.00460630494874869
-0.00178815315551825
0.000668916486041026
-0.00187694868464655
-0.00315194628229562
-0.00378384004771999
0.00356730875742051
0.00339502773080618
0.00236163657287823
-0.00333602737922597
-0.00167310246993679
-0.00406615673003149
-0.00409270688824257
0.00136276062062471
0.00309324093247335
0.000435865097299057
-0.000500175480521527
-0.000879842742940398
-0.00194538909247962
-0.000332909483791525
1.16525694370982e-05
-0.00335756250755273
-0.00171056769319029
0.00230057120899265
-0.0017990682205606
0.00315784631745364
0.00443756394322921
0.00360890400528468
0.00217519546188466
-0.00193270401688987
0.00429183307482596
-0.00360329897188449
-0.00419772751405542
0.00275457891440269
0.000237623915989436
0.00105979381526016
0.00440894877271278
-0.00413459713786457
0.00363102913712712
0.00148725136245901
-0.00171941774592725
-0.00382012526394193
4.88227909326524e-05
-0.00263805322003168
-0.00202710457941822
0.00405966669135773
0.000494570447121403
0.00157368687752408
-0.00372601970317132
-7.21279298068486e-05
-0.00116835446216779
-3.08276837006775e-05
0.00283570439782556
8.95330335230195e-05
-0.00113708427583027
0.00181883333833997
0.000310784351948931
0.00102734362189101
-0.00101318353751176
-0.00477622596129974
0.0020094044739442
-0.0038605405047743
0.00118959458873668
0.00351125842341932
-8.21579895754905e-05
0.00239084174691048
-2.99426784269744e-05
-0.00115891440591493
0.00275841393725536
0.00051050054204807
-0.00138134573137248
0.00440511374986
0.00126482003700148
-0.00312628112935817
-0.00121555474343197
-0.00356081871874668
0.00235160651310956
0.00436646851957492
0.00108250895061854
-0.00456411969736878
-0.00164478230117827
-0.00429271808009965
0.00134565051866644
-0.00356081871874668
0.00335490749173165
0.00352158348494583
0.000936483080457432
0.00214245026675763
0.00342157788901727
-0.00469126545502418
-0.00361067401583202
0.00200969947570207
0.00113236424770379
-0.00273009376849686
-0.0041956625017501
-0.000688786100462018
0.0133954286526467
-0.00208218277811626
-0.00174558274692269
-0.00127349962520895
-3.54897703411653e-05
0.00292215618022904
0.00295061635638139
0.000360621704234332
0.00120655468105954
0.00292573092326874
0.00450540002335415
-0.0036814640341004
0.00103665594715005
-0.000944114539282517
-0.00164637658880813
-0.00435397203008887
0.00654787415726548
-0.0105298292741496
-0.000668643344410754
0.000725676296227544
-0.00207070423293851
0.00114815948913346
-0.00267785742119067
0.0107271245114062
-0.00360727116012846
0.00297763810090861
-0.0162938246932586
0.00448221700831521
0.00285542946654482
0.00984775552572736
0.0297730881054285
-0.00144408770718239
0.00111419412417042
-0.00127911837001517
-4.18259021195384e-05
-0.00262642514312133
0.00364302983608642
-0.00248864719965799
0.000789467495890148
0.000421400020933174
0.00607266676931444
-0.00870761169426812
-0.00883265747980056
0.000236655806823399
0.000958807709031453
-0.00575869317675466
0.00448844361587394
-0.0131363854940916
-0.0021796395514207
-0.00329305775751639
-0.00395534485920167
0.0056387995295876
-0.0041136610148922
0.0254346389266535
-0.00421625181708319
-0.0015813139448585
-0.0239469367783066
0.013413470176587
-0.000492671879129276
0.0049002606975083
0.00355841495326475
-0.0025704486002444
0.00330706432771138
0.0019249506838093
-0.000993370237766766
-0.00232805062602927
-0.00460981021499495
0.000134641557637928
0.00764572002366708
-0.00107225746179252
-0.00250271479696892
-0.00345873988880586
-0.00715332713381209
0.00177871337743789
0.004368999533752
-0.000623371358288008
0.00377239307179616
-0.00815450586578221
0.00464058440435137
0.00107851079907963
0.00278603845375553
0.000707162698870043
-0.00345640975182846
-9.01656918619445e-05
-0.00145735851661115
-0.00479190547397484
-0.000803906141951741
-0.00402417103000129
0.00154904434280861
0.00345697139147101
-0.00419382056373903
0.0028859182060861
0.00156661692377268
0.00185324673978783
0.00292579256722648
0.000291312392029464
0.00180190906059908
-0.00345783963612781
0.00196720742929367
0.00219905066352574
0.00268466069012112
-0.00471142356590969
0.00336433621427187
0.00139698083613176
0.00199941841440004
-0.00400715159274143
0.000502550206851072
0.00418831538407421
-0.00424923972720869
-0.00217115827648201
-0.00342900650195541
0.00465562736703027
0.0011597985088812
-0.0019001449751458
0.00407025394893485
-0.00128045698098301
0.00188005125098812
-0.00271918701809415
-0.0033258686681853
-0.00250795744479723
0.000207238734925607
0.003888565671775
-0.00380449017077311
0.00389210569286972
-0.00056330585671238
-0.00405878168608397
0.00272684874915998
-0.00317259640534871
0.00458565482569553
0.00266666839054807
0.00358028883476826
-0.00279705916754044
-0.000419344998856585
-0.0047968760843528
0.00242270193676381
-0.00373073973129778
-0.000921142989046551
-0.00182561837877172
0.00476177087516263
-0.00446027907858752
-0.00239644678031058
-0.00300356039807123
-0.00243892703344837
-0.00334930245833154
0.00116304443052557
0.00372513469789769
0.00424433779180382
-0.00294190503066994
0.00270324860852782
0.00140701088430987
0.00151527652945964
0.00395494106730277
-0.000430555065656836
0.0040723517669474
0.00158696195662963
-0.00337585261654262
0.0013179203534237
0.00067216150537794
-0.000753581990558672
0.00428239301857304
0.000392204837129671
0.000759482025716697
0.000352379599813009
-0.00236547159573097
-0.000996073435553467
-0.00144742612514235
-0.00447915919109317
0.00285399450681538
-0.0029336449814487
-0.00415377225212823
-0.00106893886975508
0.000877187727119271
-0.00414757721521223
-0.00292243491464845
-0.00332629232121523
0.00139521081399384
-0.000441470130699177
0.00100816850762743
0.00190762886746827
-0.000567435881323006
0.00178313812563394
-0.0010002034601641
0.0032451668377924
0.000891347811498551
-0.00290384980390069
0.00434463838949024
0.00363456915822199
-0.00104681373791249
0.00471191557807728
-0.00304191062659845
0.00382514029382615
0.00071965678840004
-0.000560060837375465
0.00123089483484287
0.00201559951086011
-0.00435348844222724
-0.00207282985189288
-0.00231797631270885
-0.000892822820288034
0.00382130527097344
0.00203182460754463
0.00220823565876963
0.00382838531316312
-0.00102881863068051
-0.000991648409184959
0.00390390576318584
-0.00185010352467752
-0.00108162394534484
0.00068219156514657
-0.00141556593528899
0.00225897596112859
0.0023716666326469
0.00228493611582389
0.00231443629161404
-0.00348647827575559
-0.00289824477050052
-0.00219820559900094
0.00174419789359095
0.0039741161815663
-0.00127750511259125
0.000170658516945855
-0.00377587500025669
0.00393842096886025
-0.00287021960349993
0.000173608534524869
0.00149669141871186
-0.000594281041292005
0.00181381830845569
-0.00395907109191336
-0.00406409171772622
-0.00410067193570595
-0.00456441469912666
-0.00140081584739397
-0.00186337860378309
0.00190703886395242
-0.00345402808238645
-0.00101642855684865
-0.00417737239276023
0.0016987676228742
0.00217431045661094
-0.00291240485487985
0.00187547367585699
0.00111849916508248
0.00149728142222767
0.000425245034014611
-0.00388296063837485
0.000438520113120172
-0.00435348844222724
0.00458742483624297
-0.00034765957168659
0.00454287957079985
0.00220263062536942
0.000299279283390787
0.00173918286370666
0.00186367360554097
-0.00123620486648506
-0.00107660891546052
-0.00435024342289034
0.00299441534357633
-0.00319413153367541
-0.00424522279707757
-0.0018312234121718
0.00274985888627625
-0.00277935906206638
-0.00172148275823255
-0.000148238383345365
-0.00474466077320433
-0.000581300963944361
7.59629526595659e-05
0.00102409860255409
0.00249910739206021
-0.000956248198236816
-0.00145185115151086
0.00331213223683597
0.00427560797814136
0.00119195460279991
0.00480690614412146
-0.00431631822073174
0.00060755612039756
0.00351420844099832
-0.00109460402269247
-0.00187134365124639
-0.00208580992924058
-0.00457503476241115
0.00108811398401864
-0.0010518287677968
-0.00465321022825499
-0.00453314451278922
-0.000428195051593627
0.00345992811754453
0.00422191765820324
-0.000948283150773479
0.00219702559196934
0.00107867392776582
0.0029808452627129
0.00362896412482189
0.000798422257759657
0.000918487973225459
-0.00406940174936837
0.00283393438727807
-0.000365359677160662
0.000876007720087667
0.000864502651529539
0.000668916486041026
0.00305518570570402
0.0016698574505999
-0.00151203151012271
-0.00473433571167778
-0.00224924090311786
-0.00153150162614421
-0.00258967293173586
0.00261976311104183
-0.00123974488757988
0.00357527380488385
-0.00370359956957085
0.00218050549352689
0.00124623492625372
0.00380803019186789
-0.00306403575844104
0.000343824548833868
0.00388591065595388
0.00270737863313848
0.00449685929656724
-0.00292538493222747
0.00388148562958539
0.00287493963162636
0.00438269361625958
0.003371722591932
0.00377321998443553
0.0012441699139484
-0.00304043561780901
0.00113029923539853
-0.00227166103671837
-0.00241031186293195
0.00224452087499144
0.00278496409546651
-0.00318085645456992
0.00206751982025073
-0.000184228597809314
-0.00404550660697839
0.00296314515723889
0.00343485296812291
-0.00362837412130611
-0.00186101858971987
0.000708741723357681
-0.000261224056621534
0.00253303259421884
-0.0029784852486497
0.0022017456200958
0.00478507601403681
-0.00468477541635036
0.00142707100384715
0.00185246353874073
-0.00314988126999028
-0.00413607214665414
-0.00217519546188466
0.00170732267385334
0.00327614202237207
0.000547670763543618
-0.00124475991746422
0.00270177359973837
-0.00258554290712528
0.00133621046241358
-0.00259380295634644
-0.00285546951560492
0.00455320463232641
-0.00210970507163058
-0.00461190998214875
0.0026023580073256
-0.0033655275550161
-0.00437915359516475
-0.00474377576793059
-0.0014636512218269
0.00139078578762533
-0.00151527652945964
-0.000825857421244472
-0.000806977308738807
-0.00395671107785009
0.000436750102572763
0.00192621397821603
-0.00156601683181865
0.00152265157340712
0.00363692917228522
0.000342939543560172
0.000676881533504363
-0.00431130319084742
-0.000330844471486221
-0.00232004132501413
-0.000707561716326081
0.00351214342869295
-0.000129653272597589
-0.00398798126418765
0.000636171290913985
0.00202415456183922
0.00269174353996973
0.00352069847967222
0.00338853769213242
-0.00200084942296503
0.00352217348846164
0.00140081584739397
0.00238612171878401
0.00317672642995939
0.00256754779989323
0.00359503892266323
0.00394697601983935
0.00398768626242981
0.000212253764809933
-0.000578350946365347
-0.00379269010045709
-0.00141114090892051
0.00312274110826339
-0.000698711663589055
-0.00319147651785438
-0.00482490125135349
0.00152206156989134
0.00264424825694757
-0.00421719763007692
-0.00396497112707138
-0.00110522408597695
0.00177753309223382
0.00297347021876534
-0.00334369742493143
-0.00345225807183905
-0.00436469850902753
-0.00148725136245901
-0.00465380023177069
0.00462459505773855
0.00142707100384715
-0.00431454821018436
0.00400332135559852
0.00132883541846604
-0.000660066433303988
-0.00462961008762288
-0.00248819232701789
-0.00104445372384926
0.00148872637124852
0.00272478373685458
-0.00461249998566454
0.00315165128053777
-0.00349503332673476
0.00129786023388643
0.000487195403173867
0.0046735653495501
-0.000353559606844615
-0.0027569389284659
-0.00192650897997395
0.00272743875267577
-0.00152206156989134
-0.000187473617146229
0.00104415872209137
-0.0038422503957845
0.00468271040404506
0.00247285223560693
-0.00337467260951102
-0.0004214100111619
0.00204568969016603
0.00482106622850068
0.00266312836945326
0.00136925065929852
0.00117159948150471
0.00431218819612111
0.00181883333833997
-0.00203182460754463
0.000649151368261643
-0.00202621957414455
0.000466250278362891
0.00205276973235562
-0.00245102210552231
0.00045120518870992
-7.12429245331448e-05
0.00436971353891181
0.00164153728184133
0.00256312277352479
0.00119254460631568
-0.000524365624669425
0.00288791970897401
0.00237343664319429
0.00472607566245654
-0.00285517451384696
0.00125154495789595
0.00396143110597658
0.000882497758761501
0.00404432659994688
5.35428190590709e-05
-0.000102513110870675
-0.000486015396142272
0.00376348492642482
0.00425702286739358
-0.00306492076371476
-0.00239762678734218
-0.00287080960701573
0.00222800077654902
0.00426410290958325
0.00120906470475815
-0.00443343391861851
0.00136630064171949
-0.00449951431238843
0.000544720745964608
0.000429965062141031
-0.000518760591269301
-0.00423991276543529
0.00479481107204748
-0.00359828394200017
0.000975423312500395
-0.00434640840003764
-0.00316286134733801
0.00154890672986038
-0.00161970715175667
-0.00177900810102331
0.0014845963466379
-0.000864797653287431
-0.000700776675894356
-0.002690858534696
0.00172561278284322
-0.0032242217129814
-2.37476415110488e-05
7.38979403542568e-05
0.00292626993750115
-0.000627616239934858
-0.00478950104040527
-0.00155156174568149
-0.00119962464850533
-0.00359031889453683
0.00316404135436959
0.00225514093827589
0.00378089003014096
0.00138547575598308
0.00145568617436358
0.00013997833412413
0.00226163097694973
0.00229260616152934
0.00441838882896558
-0.00033025446797042
-0.00132175537627641
-0.0037487348385298
0.0039115758088913
0.00310504100278931
-0.000437045104330665
-0.00378266004068844
0.00357114378027324
0.00252654255554499
-0.0044549690469453
-0.000805502299949292
0.00421572262128744
-0.00417825739803395
-0.00323956180439229
-0.00279086413062446
-0.0037030095660551
0.000880727748214096
-0.00368914448343371
0.00114327931274617
0.000774232113611756
0.00183948346139308
0.00223832583807553
0.00401777644173571
0.00164065227656766
-0.00194774910654283
0.00298556529083936
-0.00117749951666273
0.00480897115642676
0.00263421819717898
-0.00285723952615227
-0.00318439647566473
-0.00108014893655533
-0.00308144086215724
0.000782787164590893
-0.00294220003242784
0.00444788900475576
-0.0029941203418185
-0.00114327931274617
-0.0018946487901206
-0.00366524934104378
-0.00291771488652204
-0.00438623363735434
0.00262123811983132
0.00252329753620808
0.00368324444827564
-0.00481605119861641
-0.000496635459426715
-0.000711691740936689
0.00291476486894303
-0.000373619726381902
-4.97077962063565e-05
0.00241060686468983
-0.00252772256257663
0.000574220921754725
-0.00393665095831285
0.00407943180913709
0.00380685018483629
0.00345107806480753
-0.00425672786563566
-8.80580247335154e-05
0.00127632510555964
0.00238966173987883
0.00247521224967019
-0.00236104656936238
0.00396231611125024
0.00282242931871996
-0.00290355480214274
0.000511445719583081
-0.00430849982603186
0.000213004448274555
0.00280679428121248
0.00197341426789517
-0.00461637645123186
0.00222756043948838
0.000515810659550369
0.00400386587052384
0.00363017109658493
0.00287021706129263
-0.00188086938755405
-0.00101590032109939
-0.000175090438529215
-0.00432487329067785
0.0014721574345255
-0.0048248528180567
0.00259616331863938
0.00247042673465906
-0.00270897859008464
-0.00333713448722918
-0.00427789323744342
0.00165533219548678
-0.00451731212211321
-0.00146459468673301
0.00190922005868949
0.00288201936985525
-0.000632595191042673
0.00467429711546309
0.00131028560981133
-0.00196920611364839
7.47984207483748e-05
0.00361143932437933
-0.00406673530552212
-0.00385699554865268
-0.00350114793375623
-0.00348881746849906
0.00404069160765954
-0.00184905728302238
-0.00121613121362093
0.00303364254445237
-0.00438265995679072
0.00303589564215343
-0.00251328800889341
0.00384608744562328
-0.00233356348733705
-0.00219313189546218
-0.00281469449519948
-0.00263697997474877
0.00334668089371873
0.00362358219324674
0.00374508778423049
0.00335706819505469
0.00105596667638475
-0.00424332833336723
-0.00318121625330215
-0.00305695660447802
-0.00160881829306734
-0.000436232256650692
-0.00303549759619542
0.00494780044514824
0.0159638861376245
-0.000844962333639122
0.00399329772527835
0.000219159010218804
0.00172272460191796
0.00452128741145868
0.00470220107636139
0.00355104818344261
0.00409795585550172
-0.00341611873879604
-0.00122312973041256
-0.00550933676436418
-0.00318739644030154
0.00461061140393381
0.00444104373933357
0.00363224001646867
-4.41274423494548e-05
-0.00572686501395827
0.00313866474969545
0.00236145231286965
0.00287899442904654
-0.0027993191840676
0.0021185209570448
0.00770864327986834
-0.00116792642745131
0.00401572155931868
-0.00768333675229836
-0.00393869527886502
0.0032354070713695
0.00190154478357582
0.0267831562238363
-0.00652726690312353
-0.000740948422770921
-0.0033620243973906
0.00295414932832044
-0.000640621066292454
-0.00211301235328719
0.00246456439595399
0.00550769621190707
-0.00279767190702044
-0.00451718511767709
-0.00316170874140833
-0.00255748320285051
0.000638485878162183
0.00761648326273049
0.00645541936229902
0.00780319785313774
-0.0145329332834815
0.00493671604373919
0.0037323676056498
0.000531263526028035
-0.000871638401189353
0.00302995425656336
0.015279056877116
-0.00463698184639197
-0.0045392402850273
-0.0219026396058333
0.00188201684377954
-0.00228430162205692
0.00339128651451943
0.0346980164995474
-0.0191751397473849
0.00438117589159782
-0.00586794105603991
0.000473443725158339
0.00251833894053837
1.31141407209533e-05
-0.00138521641077784
0.00166708118110946
0.000324563142541877
0.00175391214137461
-0.00238731064871247
-0.00451929206720949
0.00369802718501269
0.00113895024375745
0.00110262240252012
0.00998750888156982
-0.0188025590784108
-2.30139453854797e-05
0.00542992654487613
-0.00268594513867812
0.00659519219808768
-0.00107615123905849
0.0236342096220438
-0.0014123027806777
-0.00569059596168004
-0.0325992340807143
0.00727499753929474
-0.0012112241546578
0.00426775683775389
0.0253175095233869
-0.00616350852946509
-0.000146526880390137
0.0013125287481487
-0.00824081840337391
-0.000579058074042198
-0.00380109906999152
0.00161894194481926
-0.0175277877538392
-1.09058377667827e-05
0.00300484302222436
-0.00616985376448402
0.0034390389177975
0.00144658538584922
0.00311919211058091
-0.00173362325742249
0.0063408880030204
-0.0121175094038476
-0.000838137848185721
-0.000933752572493107
-0.015585804597189
0.00564355044982393
0.000722330848455389
0.0273442640173953
0.0187484990334485
-0.00766056690899309
-0.0464693087312532
0.0305108891809652
0.0171088213945176
0.0019710285764488
0.0732107092743426
-0.0135657364410113
0.000716069906319659
-0.00095391425710826
-0.00830384989631452
-0.00644551757916548
0.00019601748704505
0.00102021174124683
-0.0977279714437086
0.00142229145290225
0.00036750232090215
-0.000417763768927944
-0.00437601468744436
-0.00121732697456144
0.00153868904457582
-0.00184417494905252
0.00696733689848607
-0.0326756320541791
-0.000436627765378544
0.00115900292666076
-0.0194198484407219
0.00984897593563928
-0.00323752707847221
0.0720481794509025
0.0699611607775519
0.000142964417734501
-0.0885982009012947
0.046603216655508
0.032987928513067
0.00242178781378472
0.0563576909685046
-0.00281131375843992
0.0119665118224163
0.0128516992737123
-0.0161059362856257
-0.0101182164504256
0.00369392969693364
0.00100474469463449
-0.0340076744230822
0.00177048973549759
-0.000476183101178749
0.00497223836452593
0.000585435893985078
-0.00447117533717099
0.0113694755837429
-0.00902192719951319
0.00211765766777569
-0.033574120619163
-0.00568976360788972
-0.0124027968884363
-0.00686612975822889
-0.00354442058140503
0.00253678933504469
0.0576142588416744
0.0137616453724624
-0.00536512577560227
-0.0699558812567408
0.0256237286205172
-0.00250294595699271
0.00109823683684141
0.0929603330156823
0.015396771337217
0.0207618723532262
0.00875084450774091
-0.0168039570383301
-0.00924354467025423
-0.00795732759519778
-0.0033986332775448
-0.0255943393997776
0.0120276090926548
0.00131275855808098
0.0121230671472973
-0.00177487741789155
0.00431096874915003
0.0162846358618018
-0.00637926834558508
0.00980062238389903
-0.042064946505294
6.076050954686e-05
-0.01740021678218
-0.0064546671694023
-0.026486689427567
-0.0051627712937061
0.0681251386741887
0.0126143497804656
-0.00722869285051712
-0.0707890801019697
0.0254654506489468
-0.0337097826812887
0.00671819811197685
0.0876814038305736
-0.00288275654336671
0.00817710247872474
0.00638072048410774
-0.00895784257788641
-0.00750719823287475
-0.00856293032925515
-0.00388586395388223
-0.0254044833621697
-0.00121655077092751
-0.0062917893020323
-0.000120498163837442
-0.00153619405168473
-0.00087080614755444
0.0150814419741674
-0.00828566837032796
0.00784197491678972
-0.0490572720895616
-0.00429751394795776
-0.0111226783016722
-0.00358487762581691
-0.0103735304265093
0.00257785085818386
0.051995666643798
0.0188703299384855
-0.00538996891945075
-0.0848099380520615
0.0317961093231796
-0.0122392795891648
0.0282993042347586
0.057889865696656
-0.0229714427372259
0.00142698541255483
0.0274856276727359
-0.00691814501908228
-0.00302599073431691
-0.018644166245949
-0.0105377178736076
-0.0213972111922925
-0.00201409159033437
-0.0137371065366766
-0.00376671610842191
-0.0448481799736023
0.00785987289742081
0.0127966394851466
-0.00276964051946378
0.00543195162835077
-0.0418503712359518
0.00383900619494434
-0.00203113391311105
0.0608008986421902
0.00666203980563315
0.0303720260948784
0.0172963099505853
0.00744735673730465
0.0170618091802857
-0.0620008484187075
0.0262702802651655
-0.00489077039259002
0.0570133211596439
0.056285646794133
-0.0183367819783039
0.00261946086147517
0.0832341497949862
-0.0147520182893917
-0.00538443167343265
-0.0323768260816411
-0.0180783306382556
-0.0282035057466669
0.00674336690367211
-0.0173467497048372
-0.00227844673326494
-0.0523968582283672
0.00567814406598502
0.0291440400494478
-0.00587876424096768
-0.00161290566029679
-0.0379905420783005
0.00529880712010156
-0.0192402701891734
0.110675404354756
-0.000238533155053339
0.0327190930400421
0.00677651902138411
0.00695508413637356
0.0437943255291142
-0.0675677530994771
0.0454036058691166
-0.0101570792943242
0.03636841568109
0.0505172965677988
-0.0136971002753725
-0.00340723897163736
0.061543480394435
-0.021373223235773
-0.0171290997755796
-0.00310331911092634
-0.0272556902593442
0.00167290730088
0.0128527522139291
0.038280515059809
0.00380356617217583
-0.00917434699876432
-0.00277671667299278
0.0711022929703272
-0.00133381770628503
-0.00312406189015581
-0.0288146065472524
-0.00375966107373787
-0.0637305752271673
0.0469384053144957
-0.0185849771354236
-0.0341980777920794
0.0490317798312724
0.00533419241790553
-0.0186176355276941
-0.0723503598193203
0.06027331030512
0.000996165061399522
0.00677517598247031
0.0314967236641552
-0.00913401129192348
-0.000295149724278763
0.0196887788204194
-0.00568824389702542
-0.00970008872039565
-0.00506928687582703
-0.0136352502070007
-0.0124310645391259
0.0115543167964658
0.01923232716898
0.00407821636433869
-0.0012864678076462
-0.00363041424148892
0.0406770906114805
-0.00404022208039011
-0.00229409933884461
-0.0193436334202782
-0.00315814172968422
-0.0310555139131734
-0.0125953791918201
-0.000922687747289695
-0.0219790239635437
0.023762159420099
0.0138781462980434
-0.00721170110682548
-0.0370362316901212
0.0440460736105177
0.00237395203063399
0.00524459168790194
0.041499055999767
-0.00152910310459822
0.00207312406397688
0.00110456471377024
-0.00604943352332796
-0.00649825676900956
0.00424687655774393
-0.0015535264996492
-0.0160548814028514
0.00297557340130179
-0.00217200072445136
0.00352025249350587
0.00372530089296438
-0.00222610586008029
0.017385559280512
-0.00410405436075279
0.00281662219618443
-0.0179008468581338
-0.00404188875365146
0.00106456840878321
-0.00954785911653272
0.00946015371690587
0.00140414067867323
0.0316841608897947
2.51112702992513e-05
0.00484039071134509
-0.0293735938600182
0.021841819722677
0.00322339466767543
0.00630591777652882
0.0756585355421075
-0.0230633550097916
0.0017229833090897
0.00332170811935638
-0.033861289085982
-0.0228630779442842
-0.00473421869813587
0.00468080158495875
-0.0386007919329993
0.00839863657769194
0.00378789388256614
0.00167846629064378
0.00133821801249644
0.000608745513725948
0.0260483358152243
-0.00487058481378202
0.00226839549108738
-0.0101068370246872
0.0041686318082795
0.00561996124656233
-0.00599685863248928
0.0135529299234951
-0.00220105762655432
0.0448143634793688
-0.00327127120646431
0.00133625612209493
-0.0219476101514685
0.0535837530843743
0.00969597122727809
0.00512846769560926
0.0640087803079177
-0.0194792814437077
0.0028854732883195
0.00675010564370771
-0.029253889240145
-0.0139013489494033
-0.00439663431512682
0.0064674702607284
-0.0234508151651495
0.00495010623900798
0.000159652173570378
0.00398152036761889
0.00559211295753552
-0.0045764476601382
0.0127256117002308
0.00426128564275837
0.0012985363000001
-0.0117666122820627
-0.000298122677511352
-0.000121980508093618
-0.00710285195348112
0.0136716896997188
0.00291579386649255
0.0364225788007603
-0.00143093308017481
-0.00572593971203853
-0.0234144845921142
0.045451904477254
0.0128188801363301
0.0044927807022387
0.0787898447534976
-0.000878789293376313
-0.00281906294363757
0.0172487530296778
-0.00795157893293374
0.000865977303813726
0.00269306339382111
-0.00278708403782051
-0.00734275280478684
0.0105975697748743
-0.00219752487886788
0.00547150079218925
0.00328982663130492
0.00332566692171328
0.00564214747352933
-0.0027088201786584
0.000720791929768007
-0.0278040317384008
0.00499563016409014
-0.000655405697408052
-0.0057550225724826
0.00651926985216683
-0.00115638152793602
0.0237807459907261
0.00401313487704146
-0.00135470073961609
-0.00798678862164599
0.0192393368192411
0.0138972477634207
0.00144117393443188
0.0410133689153479
0.0021184603159014
-0.00402400391291833
-0.00140533261288262
-0.0101661012584068
-0.00439321467260514
-0.00178460959941715
-0.000113950387603719
-0.000262613116848605
0.0075621134979456
-0.00387043697963099
0.00164584509693119
-0.00345012573952212
-0.0021197293411532
0.00409256046302449
-0.000926867499174827
0.00537017987541016
-0.0175238810044431
-0.00377633303490208
0.000245655141375926
-0.00353221298310698
-0.000535500766359324
0.000682829214464011
0.00733542808353785
-0.00358659045791234
0.00457099970358365
-0.00401078921880361
0.00518209338231702
0.00120145218994437
-0.000731593135825042
0.00235610780140447
-0.000382385114436048
-0.00183024584225395
-0.000785182471308911
0.000182123215297075
0.0028878056187067
-0.00108033108551842
-0.00070271481846518
0.00215698612398863
0.00299433517379741
-0.00384313518168699
-0.00404501970916195
0.00244562568061028
0.00335404663655404
0.00184940068603405
-0.00185233944194483
0.000506470889684066
-0.00732897619385685
-0.000818011382075173
-0.00297475963876185
-0.00188047177687722
0.00529161897137378
-0.00262234514641502
0.000909801167287145
-0.00317034486702217
-0.00153179269428971
-0.00380620131839179
-0.00216023290738662
-0.00283717210396439
-0.00316610636667489
-0.00159227198827188
-0.00420067753163439
1.84376098688257e-05
0.00448210920867216
0.00298940031369206
-0.000517580584237693
0.0039921112887983
-0.00310032097466284
-0.000174788541556471
-0.000269779107600671
0.00192591897645813
-0.00243007698071127
0.00422132765468758
-0.00215130031949466
-0.00193771904677418
0.00311684107310533
0.00308970091137844
0.00125567498250655
0.00285222449626801
-0.00476354088570991
-0.00231060126876135
-0.00203447962336576
0.00437856359164896
0.0034746782054395
0.000168593504640549
0.00200586445284939
-0.00235691654475182
0.00406999175288422
-8.45180036386985e-05
-0.00392898091260745
0.00315106127702192
-0.00409182188296893
-0.00210115002065147
-0.00112262918969311
0.00138488575246731
0.000145878369282155
-0.000661836443851401
-0.00347290819489214
0.00459125985909569
-0.00411188200250615
-0.00478301100173146
0.00400951639251439
-0.000853882588245083
0.00246813220748061
-0.00301919549123995
-0.00384992044148994
-0.000742961927274231
0.0017200077494431
0.000265059079474247
0.00313395117506365
0.00325932692217167
-0.00220882566228542
-4.86752900536977e-06
0.00358087883828401
-0.00339296271850091
0.00455084461826322
0.000370964710560786
-0.00270000358919093
-0.00418799245604468
-0.00285517451384696
-0.00292184491113267
-0.00296845518888105
-0.00290443980741647
0.00441543881138652
0.000903737885330399
0.00230824125469811
-0.00198757434385952
0.00173829785843296
0.00276578898120289
0.00407264676870536
0.0041413821782963
0.00332835733352052
-0.00232977638302492
-0.00381393022702599
-0.004234897735551
0.00390302075791206
-0.00339945275717469
0.00379652512330976
-0.00135892559777196
0.00441455380611285
-0.00114475432153569
-0.00162914720800951
0.00178402313090766
0.00374607982270869
-0.00115891440591493
-0.000645021343651026
0.00168814755958975
-0.00225130591542317
-0.000165938488819437
0.000269189104084863
0.00291977989882739
0.00284307944177306
0.00238110668889972
-0.000128768267323883
0.0031684663807381
0.000570680900659915
-0.00213832024214702
-0.00147722130269035
-0.00430982818205795
0.00397529618859789
0.00254129264344005
-0.00127131007567532
-0.00210351003471468
-0.00279115913238247
-0.00169581760529518
-0.00434847341234299
0.00368884948167586
-0.00242801196840601
-0.000929698040025702
-0.0034327879558176
0.00362748911603243
0.00104504372736509
0.00274189383881293
-0.0029303999621118
-0.000466840281878689
0.00253037757839772
-0.000644431340135211
0.00131910036045531
0.00294397004297518
-0.00314693125241126
-0.00171410771428506
0.0044773891805458
0.00202415456183922
-0.00292361492168003
0.00350771840232451
-0.00437590857582776
0.00235101650959376
-0.00448476422449333
-0.00356848876445219
-0.00403695155599925
0.000509320535016456
0.000666556471977822
0.000319044401170172
-0.00271740869290713
-0.00408710185484248
-0.00188874875496259
-0.00421011758788732
-0.000857717611097801
-0.00354075859920942
-0.00240028180316332
0.00309943596938919
8.48130053966005e-05
-0.00223567082225443
0.00471663560620375
0.00402633149271486
-0.00365639928830669
-0.00208374491693528
0.00200055442120714
-0.000280989174400913
-0.00198403432276467
-0.00150170644859619
0.000242638945873754
0.00300739542092402
0.000166528492335239
-0.00418238742264454
0.00318233146335937
0.000525840633458926
-0.00383133533074207
9.24830511020323e-05
0.00431779322952127
0.0021566103511369
-0.000252079002126593
-0.000470675304731401
0.00404904662807322
0.000472150313520908
-0.00130228526025494
0.00371539963988693
0.00154389169997604
-0.00364872924260133
7.15379262910464e-05
-0.00374637482446656
-0.00212858518413629
0.00044914017640461
0.00281564427828822
-0.0012645250352436
0.00346169812809189
0.00236193157463617
-0.000349429582233997
-0.00135656558370879
-0.000532131019837902
0.000851874332749034
-0.00116902347326163
0.00127632525324932
0.000556815815154162
-0.000222790063210259
0.00325434998261727
-0.00303807625364076
-0.00473107037944233
-0.00377705504707373
-0.00440604655765541
-0.00268941462631725
-0.00235855935875653
-0.000867143932454332
0.00200674939192495
-0.000551950526372591
-0.00354164569152539
0.000425836710499721
0.00344851404734278
0.00296403055349981
-0.00272330887992599
0.00409621362075958
-0.0017997148481517
-0.00344871243158415
0.00103864769529939
-0.0047337451732217
0.00440363555081737
0.000337907869430959
-0.0010932712911858
-0.00471339098626952
-0.00270060048991765
0.00372836012716612
0.000910500422553757
-0.00123279767736108
-0.00290610405613512
0.000366085924271313
0.00301071011748506
0.00166904460404639
-0.00272567318096893
-0.000912648902849573
0.00656431232094604
-0.00389216425167503
-0.00166071425941835
-6.65993716217069e-05
-0.00159196441063791
0.000451838258630069
0.00128716787491624
-0.00240642508300383
-0.00206338628787721
0.000320258303240413
0.00270815736922642
-0.000216387790910472
-0.00166104665320064
0.00168755412189564
0.00256363442432205
-0.00035058407934611
-0.000842850350253881
0.00392374699599853
-0.00363987940397471
-0.000722857820424446
-0.00366193291882003
0.00334405967246257
-0.00623415809341347
-0.00308592275051945
0.00301757799606206
0.00302505546345184
-0.00053444092888647
-0.000469927444510871
0.00138396176277055
-0.00108170304347697
0.00209697454915875
-0.00388774021587791
0.00356675203855863
-0.00130185376897707
0.00365471771776825
0.00146101773673597
0.00445615508852654
-0.000973478582195835
-0.000278315557285004
0.00133142773290492
-0.00160624663790943
0.00265730421509144
0.00348382663772653
-0.00421583782408965
0.00347942172445138
-0.00169759129518383
-0.0025516599990124
0.00170128405480574
0.00374607523568064
-0.00286042195753187
0.000757244709517005
-0.00223067436075293
-0.00367985050447421
0.00253271891405555
-0.000836183221867789
-0.00229528141619647
-0.00326729195437164
0.00197926248276685
-0.00245590188126933
-0.00141891234736381
-0.00265322504501514
0.0015642644400519
0.00208576476937937
0.00167116570702146
0.00136812758102606
-0.00403645186020353
-0.00157806200969387
0.00446562685315794
-0.00181331683283233
-0.00222317134909937
-0.00325378736533125
-0.00152689644152512
-0.00202097991025149
0.00388933194918278
-0.00131022140870215
-0.0023326494034656
0.00120535392411225
0.00161006259838947
0.0011126079100466
-0.00206399182240075
0.0050770209406909
0.01658464596874
0.000644891849214626
-0.00623170861246685
0.0018321788763004
-0.00124903534954881
-0.00344846130442406
0.0110963999152032
-0.00165213163121739
0.00292264190687734
0.00259057930378646
0.00147063450502348
-0.00234123839680438
-0.00407425894087725
0.00143805670867477
0.00175236623840198
-0.000194165685036753
0.00446244062031451
-0.00681553962658867
-0.00642330744896327
-0.00420300720183291
-0.00242437387835755
0.00539590576200879
-0.00519678860507049
0.0185418287788839
0.00468988078685475
0.00215675943401344
-0.0143468685694388
0.008567629574269
-0.00344809295464111
0.0160534970081375
0.0562364003198173
-0.0105707252858703
-0.00443004322382565
-0.00358707632164584
-0.0135373044115742
-0.00221897777412824
0.00620094570045377
0.00565497293866638
0.00824905866896756
0.00182159173097794
0.00336169901822235
-0.015200267627219
-0.00205254422652045
0.000361794189880708
0.0130165103343932
0.00327465996242877
0.0149857420533136
-0.0329807515903168
-0.00177019860582068
-0.00300919142223264
-0.0024852239105194
0.0166099224143927
-0.00818156805225282
0.0588759626720631
0.000704370577895481
0.000102625183363845
-0.0373558929189972
0.0423534865225253
0.0140635560131981
0.0534795944950346
0.0395450970824807
-0.0376384157617526
-0.01934847523505
0.00199877958586822
-0.0429144758979671
-0.0177265342673325
-0.00651944961304906
0.0271043483449351
0.0806288338586136
-0.000633375922712743
0.0466130632589083
-0.0179977262088754
0.00108220903805694
-0.000310958472787786
-0.00291861082760032
0.00307590897272519
0.0308086081689954
-0.0463673765913891
-0.03399206503177
0.003263887755727
0.0365446602227855
0.0236597797934007
-0.0119960994479389
0.0757992847656335
-0.0130882901805069
-0.0450099687993108
-0.0962328660111505
0.0860192785380103
0.0646269916331885
0.0944321071054129
-0.0213513947317375
-0.0564041811341205
-0.0394718976695689
0.00721611599950071
-0.0649939155416867
-0.0420368756939087
-0.0213726470218133
0.0424519267140241
0.150188858743034
-0.0071991019555056
0.0857125709614353
-0.0149674392669938
-0.0122495530026134
-0.0166992012842242
-0.0304949288786051
-0.0163595877742753
0.0272446638647618
-0.0518726485367497
-0.0935103455994505
0.0022111359135231
0.124769900726127
0.0530438431040841
-0.0152039936847634
0.126562232151694
-0.063944647636263
-0.0975161584421205
-0.142832730247972
0.0983217113365572
0.116536968848579
0.135108131754361
0.116481386778245
-0.0681801927660811
-0.0306383507702998
0.0138526048522801
-0.092913530772749
-0.0433902946160727
-0.0702086358689704
0.0519442985280062
-2.62740844888065e-05
-0.00645728915981309
0.0771381031146603
-0.00657062348148854
-0.0123847788051217
-0.0107163762617656
-0.0280171498268005
-0.019943145134997
0.0394591344462415
-0.117229435398333
-0.108665262791613
-0.00469215386566764
0.0751612162580631
0.0859396278010137
-0.00671097706104756
0.25539104095214
0.0264833420589924
-0.0836771692042032
-0.229654382009951
0.140182589040332
0.136234106544656
0.106713904139788
0.167312800520358
-0.0864268513383704
-0.0361003643496397
0.000521378565417263
-0.116170295062536
-0.0412426717885986
-0.0623693305842526
0.0416312406982475
0.0264769239296931
-0.00509996271652135
0.0682353221987929
-0.00901107478741011
-0.0174062683944592
-0.0280381183759134
-0.00419527353797951
0.0219469205188351
0.0281476494123202
-0.12888458940955
-0.100455510567891
-0.00608932426887922
0.0734480674571623
0.0910008674468703
0.00773779595777537
0.214981163065415
0.00378209050365912
-0.0969904775602834
-0.184418816579592
0.0986674283354391
0.0901915813763711
0.127212247416067
0.089440576732337
-0.094452320197441
-0.0496457626083777
-0.0159713590443693
-0.162142618015254
0.0209746804761725
-0.100303028440654
0.0294272074984293
0.0493493856985754
-0.036854597799847
0.0435494444207589
0.016556297343316
-0.0693436856764722
-0.0275776614457884
0.0257392196317766
0.0489080939533983
0.0658588506687141
-0.155128053852043
-0.0555633612955309
-0.0194642317031296
0.0876730595843904
0.0935832324288595
0.00514420661061709
0.237102688437235
0.0146908369217833
-0.0397971717325533
-0.18394656079088
0.0234673459815708
0.0693043440986913
0.169517085632814
-0.00879569488957544
-0.00181542580606251
-0.067436189972363
-0.0727075687909332
-0.149756642103419
0.0612743096022512
-0.181860153244843
0.0294748472155981
0.0510698725359412
-0.0333731399880466
-0.00169288199810998
-0.0322031796128511
-0.142303410155308
-0.002274529716204
0.0468858573593579
0.0467553622047582
0.0603705607293591
-0.175124537649418
-0.0646375647025906
-0.013143467488491
0.163061386554924
0.146511921037098
0.0267833756606498
0.177938192587664
0.0612133910936186
0.0733079156634944
-0.182738477913793
0.0383125210068714
0.0542269223652572
0.201407701998525
0.0984390327269653
-0.00687553964473871
-0.0930745065222031
-0.122551081987279
-0.182545419533088
-0.0940820325142876
-0.183301278712777
0.0536152591837981
-0.0713103659415166
-0.0286136344450669
-0.0240612110669518
0.0378594010671367
-0.0788232010316153
-0.00436293489535213
0.0415141787001475
-0.0128651527422114
0.069256975225531
-0.190477537836412
-0.036749738661042
-0.0020096254686599
0.212641233679587
0.182990320999697
0.0140053340934871
0.168502989409855
0.0547919717532772
-0.00980061184758102
-0.218132059653462
0.142878502725573
0.0376787161294831
0.217089170014054
0.242026331053539
-0.0396673034540698
-0.0575456174051832
-0.0720943877047536
-0.191075860660434
-0.118131762458158
-0.218888155721763
0.0226201072521103
-0.211322525920961
0.00638745656497366
-0.153400677531853
0.0660485270706861
-0.128907213092254
0.0220675983685225
0.0505800818108854
-0.131856349788346
0.0288390537412274
-0.229177255625863
0.1268134478323
0.00191681946723145
0.256986141005787
0.161675601431872
0.141823821665746
0.115811213708918
-0.0173752156946393
0.152028506123667
-0.21477855655337
0.109646009273932
0.00372647513342555
0.116135019247312
0.332340709810092
-0.0769906738729385
0.00992307953803705
-0.0307541632069756
-0.151525165691177
-0.117219985728178
-0.102965730999286
-0.0215754562496193
-0.186975427026909
0.0453538610880282
-0.0453086583431545
0.0971816314227937
-0.0693659157857252
0.0783537631494184
0.0993149991882502
-0.159043964498666
0.018404790150803
-0.17914016138802
0.128929093289408
0.000278125027382019
0.0774661780211137
0.142540219143686
0.149956692312067
0.161116362009079
0.0112952482254533
0.171139795425957
-0.252862574614935
0.146057158265899
0.0401550772124637
0.0890672765523844
0.356132491181193
-0.139337224563005
-0.00698256439340302
-0.0347997413536371
-0.166058435948283
-0.0935186442190891
-0.0253572925128587
-0.000625769001008505
-0.0969100105477051
0.0617009771265612
0.0278408102183462
0.111668431384468
0.00483850988893491
0.0589840180136477
0.124480222462568
-0.0997113100153169
0.0189693530264898
-0.0749009732037463
0.0120628113225676
0.0132907942872159
-0.113533947176487
0.112927640566286
-0.00114981206198517
0.180120790663113
0.0426039602573497
0.0381263893989616
-0.251573848856809
0.222759555192583
0.0621643272629485
0.0533847439865308
0.33566044043727
-0.0584700625000023
-0.00541871688363911
-0.00843603599315128
-0.14740889240653
-0.0689096015600984
-0.00693331959685725
0.00223634973871303
-0.123519148444463
0.0810478910249362
-0.0232265638200626
0.0702535809188849
0.0288125894724061
0.133157671887662
0.105324176855775
-0.0721951129621561
-0.0033361459687598
-0.0598689648899475
0.00647102508569593
0.00504653948995371
-0.142997955124422
0.0497866274782947
-0.0354220453352897
0.152477988640919
-0.0266578615462962
-0.0047429099414549
-0.291497235942051
0.276372812318962
0.0577481053642685
-0.00457600783362527
0.33796740050786
-0.0313681524792008
0.00290233180084419
0.0172515828458345
-0.12711244047027
-0.0386556952610471
0.00495872708863485
0.0156715097193866
-0.179250425049358
0.0715642345245026
0.0238768559015426
0.136670632325018
0.0267023160712598
0.0535415743331865
0.0952493105476503
-0.0262713454771788
-0.0544098216431554
-0.0551897127758216
0.0197767028302186
0.00071639466399638
-0.170065160933539
0.0273800445340215
-0.00973625815562027
0.113831117256779
-0.012122786447659
0.0158795499183618
-0.28133756927031
0.318800662955047
0.0577957517337975
0.0208840609180643
0.182274098051064
0.000311634367602785
-0.00888322103230503
-0.0472724949940206
-0.0941985876596544
-0.0251405081596129
-0.00649810909908549
0.0691515860945706
-0.0500410256233797
0.0932846917737373
0.0199803992913326
0.134483136107514
0.0103340527153764
0.0378351970669054
0.0361324004105677
0.0177136329989426
-0.0143160822136697
-0.0477122262822283
-0.00210240442325511
-0.0117970991316697
-0.15428964630836
0.0637895388336729
-0.000843672313838677
0.0588388792999795
-0.0233619961971696
-0.0470543839936786
-0.231804401038252
0.243909538410263
0.0485127064544638
0.0394174486571782
0.174696795218114
0.00240781145639582
-0.00771895722522371
0.00934011274122441
-0.0676730660789921
-0.0253862475063093
-0.0159167089031776
0.0581996076227229
-0.023814453523499
0.0943713518665696
0.0260025535507148
0.0969474056880512
0.0103495458150911
0.0183619418616295
0.0293379256464825
0.0129827698337615
0.00394129400586244
-0.0562005611888431
0.000404079940071895
-0.0114682698408059
-0.178806773867761
0.0600282031324642
-0.00145251857459996
0.0876392382737429
-0.00895344325569168
-0.0273782417373365
-0.195162789514975
0.208542192567714
0.0705959272818179
0.0299255573867718
0.160986000364059
-0.0146046487449141
0.00152423407057475
0.0281300166911416
-0.0386563800273348
-0.0156520759022178
-0.0165004984487791
0.0275525939885841
-0.0113080616005031
0.0638872793895531
0.010445214852081
0.0399458842724548
0.00639994660887759
0.0162479242801698
0.0168251176281436
-0.00269317800788475
0.00402432606133527
-0.0484567251472261
-0.000781563671919961
-0.00518886735581694
-0.0849830789614834
0.0332094434024912
0.000708720064250985
0.0582071619859343
-0.000232798883551276
-0.00720459703493891
-0.0974995750688872
0.101515877021521
0.0341716148790094
0.0386385550885339
0.0692154164947076
-0.00855993559777196
0.00461052592091398
0.00449135694500208
-0.0239037774252158
-0.00999324811184349
-0.00992354413317449
0.0198651675626251
-0.000839952144366455
0.0314752953325983
0.00950206725387903
0.00997032839163135
0.000918008160399644
0.00938891394141736
-0.00248763779042618
-0.00579516248970342
-0.0020484067387278
-0.011185547002919
-0.0171575881739672
-0.00298923680997974
-0.0230520214715936
0.0223796612939702
-0.00222366030595478
0.0387385257526426
-0.0105025041253652
-0.0127870298180458
-0.040718154506253
0.04213945786647
0.0257609952779399
0.0307159664265524
0.0110896829807155
0.00283098224372573
0.000991816866302761
-0.00396245800019017
-0.0231587797228939
-0.0059198084270921
0.0256978603751931
0.0118045417381196
0.0511816254163415
0.0223636695232671
0.00608503846947403
0.00770968881007261
-0.0283618298474422
-0.000984193664371454
-0.0018984117781731
0.00587872415117761
0.0037674270329715
-0.0104564303292112
-0.0117297066341066
-0.00406243748938732
0.00142205604249711
0.00746132151563555
0.00394361009658426
0.0346819491194161
0.000200406087599206
-0.0130072991925606
-0.0415509176925866
-0.00716486397988781
0.0120916917869813
0.001571653406327
-0.00429973079267705
0.00296491094985358
0.00244002839138115
0.00290153752030279
-0.0129330357166898
-0.00517359654407346
0.0267322633326681
-0.00168027513992243
0.0308521639301829
0.00635533241899379
0.00556434267500011
-0.00135071726253632
-0.0121994941142907
0.00271829204724858
0.00248983137320151
0.0026667214897657
0.00242830031604746
-0.000235724131838864
-0.00441783555045327
-0.0043251570571229
0.0054417149105087
0.00336706501546531
-0.00353453316268164
0.0166602008439493
0.00224025088543288
-0.00406439516665828
-0.0230604222852811
-0.0203318944307023
0.00398514541772214
0.0042980281117418
0.00410775197789554
0.0034926733126715
0.000678651544051766
0.00425053282871975
0.00185364354577232
-0.0018689836371832
0.00474525077672015
-0.000723786813010649
0.00425613786211985
0.00101200353048013
-8.658301594401e-05
-0.00323218676044474
0.00217106543727404
-0.00435997848090107
-0.0017064376685796
2.66976590900609e-05
-0.00271062365247535
-0.00468389041107663
-0.00331154223332014
0.00035562461914992
-0.00192503397118439
0.00337054258490041
0.000444125146520296
-0.00145627617787939
-0.0048213612302586
-0.00370684458890789
-0.00207076483958759
0.000469495297699789
-0.00482549125486916
0.00256813780340912
-0.00409477190054782
0.00403636155248343
0.0029584251291124
-0.00281534927653026
-0.00112498920375631
-0.000503715501616331
0.00265840834132684
0.00361598404747419
0.00401276141185139
0.000373914728139794
0.00139403080696224
-0.00241798190863739
0.00109135900335558
0.0013869507647726
0.00206692981673489
0.00438564363383845
0.000679241547567576
-0.00343042794175441
-0.00147574629390087
0.00346464814567089
0.00268997352942229
0.00232859637599329
0.00427118295177285
0.00296196515020728
-0.00378148003365681
-0.00369091449398117
-0.00458771983800081
0.00427796799220456
-0.00057687593757584
-0.0028725796175632
0.00132913042022395
-0.00292213991289057
-0.00162265716933564
0.00251975751511332
0.00144005108119482
0.00438859365141755
-0.00334487743196296
0.0012963852250969
-0.0031159560678317
-0.000745911944853245
-0.00408975687066355
-0.00101967357618557
0.00247491724791236
0.00258141288251465
0.00320593160399151
0.00185600355983551
-0.000899017857203969
-1.46025870161105e-05
0.00136217061710889
-0.00402574148919903
-0.00208669493451433
-0.00307082079887274
-0.00259409795810443
0.0011718944832626
-0.00451721441786254
0.00463049509289655
-0.00160731707792479
0.00464967020716019
0.000265059079474247
-0.00429478309240493
0.000688681603820412
-0.000829102440581385
-0.00344311301734411
-0.000987223382816432
-0.00335874251458435
-0.00191116888856307
-0.00272035871048609
-0.00432664328225829
-0.00226900602089728
0.000930878047057304
0.00344075300328096
-0.00160407205858787
0.000802257280612378
0.00408503684253716
0.00228080609121329
-0.00458565482569553
0.00279499415523517
0.0013114303147499
-0.00405288165092593
-0.00383192533425796
0.000240573933568447
0.000962148233394851
-0.000622896211808431
-0.00463403511399135
0.00161616713066182
0.00462813507883327
-0.000770102089001138
-0.00410155694097974
-0.00151793154528076
0.00316301273207531
-0.00373653162132044
0.00390293734028493
0.000831757905369211
0.00203359511416883
-0.00314632030927892
0.0011064889498188
-0.0043918045849694
-0.00213630581217412
0.000602571539364147
0.00118914469305752
0.00128405382896876
0.00327383140392006
0.000458605984259961
0.00140258572157757
0.000693018069313533
0.00444926032390767
-0.00168755369728911
-0.00433889268061839
0.00153146160376374
-0.0028495697985143
0.00283000031141581
0.00334589803745533
-0.00248481589119454
0.00369315597546254
-0.000112541882492911
0.000609116351002368
0.00255026404789594
-0.00463061664257212
0.00224876840295901
0.00211859164373141
-0.00069452546196621
-0.0012132026977685
0.00750594729401233
0.00127166494507598
-0.00166523473494462
-0.00777418691022657
-0.00235752225196466
0.00262743342119888
0.000379585681344232
0.00565323281488402
-0.00459772010991167
0.00223098743893108
0.00159982045935689
-0.00221028731768331
0.0087472643350841
-0.00418665993326529
-0.00278512805425169
-0.00323562663656229
0.000447072128175999
-0.00790200889442865
-0.00346091250394034
0.00118225767403975
-0.00113518946709812
0.01426351962874
2.38420830177256e-05
-0.00462437765151854
-0.00268834916908017
-0.00318650441036106
-0.00402211067699989
0.00867145210682437
-7.79570475090202e-05
-0.00529181303756589
-0.00526885647538364
0.00305139344529414
-0.0174860204498382
-0.00469134056623609
-0.0028353883147007
0.00521960797440813
-0.000200895514848107
0.00136894903466733
-0.00152324520761935
0.00470621455216602
-0.00207511788629351
-0.00361419935681088
0.00185854363824468
-0.00798699968856334
0.00312397716834424
-0.00295114077305579
-0.0077607002667067
-0.00177798858988703
-0.000706175459518808
0.00811612965178176
-0.000723876343633625
0.00110216104615469
-0.00122699351793154
-0.00196531775381406
-0.00415266527973815
0.00243363280011008
-0.00198077661827397
-0.00790495168866415
-0.0279219783110557
-0.0223279996735499
-0.0424379635465299
0.00606042842116907
-0.0097783997609104
-0.00796993960254831
0.0167873185304661
0.0111112078360345
0.0239402592305922
-0.0478073477780018
0.00188543917138363
0.00121545210282981
0.0190023401070224
0.0353889852699276
0.00106394939125273
-0.00482647220756476
-0.00652440225062441
-0.0104597827413242
-0.0102170487529476
-0.00384267722761249
-0.00418629768113813
0.0485274444343286
0.0162797656298916
0.00645841101783592
-0.00943805637889496
-0.00497070561752292
-0.00800514932882797
-0.00733608439850243
-0.011240704095465
0.0858032970268026
0.00250187132771524
-0.0174382891352611
-0.0473386440249631
0.00792330085016366
-0.0489512302740428
-0.0113382646802907
0.00272429843073639
0.0262079070204387
0.0319696080368698
-0.0596973920226774
-0.00971425562272926
-0.0249561690815058
0.0208974134047111
0.0259658850452441
-0.00667136874758105
0.00220865497020319
-0.00139884129420308
-0.0201597925194862
-0.00648241698188753
0.00339480227217392
0.0101321193467058
0.0578024799307883
0.0041390618872283
0.0851082235722074
-0.00592928550638132
0.00077303820429523
-0.047816036916434
0.0345065010455381
0.0277141759544336
0.121846051120458
0.0210615744575836
-0.0297176810481447
-0.117411637176205
0.0149275520006329
-0.10606953628782
-0.043418111953279
-0.02971275388817
0.0363292476960082
0.0757327226947498
-0.10501605801352
0.00856776225447948
-0.0615572549809051
0.0280980124956489
0.0259456962651134
-0.01641168380505
0.000235655960159869
0.0151215728189327
-0.0393111157572402
-0.00743446774210303
-0.00538891602856438
0.0195928576562288
0.0990884461266986
0.0155641531849131
0.142746316325971
0.00576953167419465
-0.00780446932332826
-0.0265230674247847
0.06627428060278
0.0655536760495046
0.0526019344987658
-0.0557848841643946
-0.0490372601683779
-0.0947786142996464
0.0221123698293989
-0.106377374039251
-0.177551112859932
-0.0439461037927378
0.0243072777865004
0.201547134880059
-0.0857002407369533
0.0618904721174709
-0.129259204758794
-0.00254120457604831
0.0268004317717338
-0.0359637460849876
0.0142679908998915
0.0242007577321365
-0.0724259421567741
-0.00388222371500177
-0.000353862178042585
0.0266910867367739
0.0849513276329217
0.0208967854750626
0.197697094353925
-0.0254186192066595
-0.0822551460930073
-0.117052523843735
0.129840104758062
0.0729585065809675
0.150808143706827
-0.134615433081821
-0.0837901840626939
-0.0938784444170968
0.0228049602324105
-0.191893565753633
-0.180643017073765
0.0148570379090734
0.158270982416609
0.282308952727962
-0.0754086217627052
0.161746504596575
-0.123756156848047
-0.0659385072833285
0.0371938346014835
-0.0694730019944511
0.0154115702276791
0.0767458921614495
-0.0608732697998937
-0.0798302556635803
-0.00263237670595756
0.260758295763826
0.119408042202411
-0.0302718390805839
0.240331566851962
-0.0313581883854705
-0.237775918980668
-0.268413524070734
0.099475823398831
0.169430676475803
0.209059902233478
-0.169605692826511
-0.121450535636385
-0.147884423233795
0.0281363458214962
-0.1772010806227
-0.185725763448746
0.00792971009885817
0.169189062249396
0.195985539139058
-0.112076317465583
0.217891823853186
-0.0658176793953496
-0.0550834581740793
0.0368228145464573
-0.0591461802150374
-0.0147989130694535
0.0742179207570444
-0.124611274523243
-0.180502335250956
-0.0222492837910458
0.241403972520034
0.236932385069814
-0.00114704074671299
0.427776018676063
-0.0208308757549724
-0.318715805382307
-0.23917298878008
0.0495857213869564
0.22778539078012
0.121370346485977
-0.367531113295365
-0.129284898094216
-0.213071032317886
-0.0544466477419572
-0.218930999612562
-0.252265388000626
0.112720400689931
0.11398424358358
0.253704135359154
-0.0992502130901698
0.256052394701745
-0.117209660132618
-0.0248238024607861
0.0144058732714596
-0.0500089960869038
0.0523003906156644
0.041514120339352
-0.149043865413795
-0.208010775471232
-0.047630300359698
0.248088899291157
0.349203801851211
0.0696970217234502
0.406309582091269
-0.0379247226798953
-0.4024664922126
-0.246932771455449
-0.00969600398758657
0.159428105692017
0.0565473955548027
-0.441195597229531
-0.2255062903503
-0.228614659364428
-0.0798735365637577
-0.391789090729404
-0.110160192631781
0.184266534014689
0.0981970270337392
0.00676427021951796
-0.154525905992903
0.141538502860639
-0.0446541947614201
-0.112988104285834
0.0788411700680462
0.0918829344523643
0.0412564667834243
0.0961777236434917
-0.247841536254503
0.0656046307838694
0.0158165788035698
0.196728277599258
0.380936905187497
0.118157247425119
0.475105582343828
-0.0302185770804308
-0.272509843233834
-0.210176389415698
-0.179991748089006
0.139398238527859
0.320226490499879
-0.120203189126824
-0.15957555230485
-0.286051640283123
-0.397815490602061
-0.618240504682549
-0.122942656401138
0.093178417797125
0.0382408631588298
-0.201171034626288
-0.0169510766790092
0.200774177827229
-0.0312419988024667
-0.152391312262904
0.104808605415796
0.077749585078744
0.0502951859407246
0.192385028170289
-0.340946638539026
0.0694228288082942
-0.0127177133486446
0.0853191232289985
0.414573724050754
0.150133742999309
0.777596432126255
-0.0237227450735365
-0.348335101541551
-0.172884413856922
-0.0845921016495184
-0.132101325575508
0.187631694041399
-0.139329467309867
-0.0633376686382572
-0.296411964624427
-0.57688356502602
-0.593079726351097
-0.272784491263005
0.118503399564731
-0.10187550253336
-0.480140750008538
0.017024919949305
0.0151886699244801
0.141021873860807
0.0273206923507861
0.247683054400596
0.0402888950520985
0.0946653383695547
0.203659234634435
-0.286498949159347
0.200269981172266
-0.0360488540500594
0.0366712839413384
0.534041769510053
-0.0143742875219063
0.967810062035051
-0.114010592645747
-0.367853445136204
-0.0409999117034626
-0.186254786818448
-0.266627313488153
0.0668069256536999
0.195738870496296
0.0329040628475367
-0.224507639174968
-0.485104086232756
-0.533883442998364
-0.353380477300322
0.10518764833614
-0.209187797618011
-0.69204218675616
0.0396395719243129
-0.212931040355312
0.108852783313648
0.0627099973229325
0.335036183187702
0.125016638293122
-0.259943648979996
0.280578666764758
-0.184641037138129
0.426519497709799
-0.00973431477934431
0.129253897272705
0.474663607106237
-0.148243883953966
0.57854861525256
-0.174160128318793
-0.1118029664577
0.0291454202656711
-0.179557629653038
-0.37372915330348
0.144255145268285
0.00205382225792061
-0.0284147444889455
-0.216817036712468
-0.48068129140664
-0.391959316859847
-0.349437095044547
0.0726324035242019
-0.165628594801525
-0.469012365894713
0.0624010244205275
-0.0414395099157846
0.126935924070863
-0.00912047649850199
0.268831826615254
0.0881948978837505
-0.274515435914397
0.13856438201543
-0.285360243123496
0.153210307133686
0.0175675093931682
0.34652036712337
0.643960274269171
-0.151248854545466
0.592449948738119
-0.175759457481842
-0.178371066256928
0.106335775366364
-0.0210885690945253
-0.357844179290619
0.0949553889565743
0.256604898126651
-0.12068855410516
-0.174688636789592
-0.308359328128342
-0.493791035352545
-0.332213335519099
0.0830665598336917
-0.00794234591021997
-0.240632071329408
0.128882444359162
-0.0207400745644108
0.238444936434296
0.0605033596050483
0.216845355176715
0.103765921459876
0.000764992891232484
0.0152895965300829
-0.284980792534501
0.00724485820425424
0.0125045246839355
0.0915352575562254
0.696760288893883
-0.0614557571732661
0.453397919013726
-0.270596233811605
-0.152310654902584
-0.0165677848715924
0.216763529157518
-0.256209923404249
-0.226473598160823
0.449802077726905
-0.154483431469971
-0.122946561022212
-0.132186291667282
-0.422797224248944
-0.1495001670943
-0.146846731118469
-0.0289578020941103
-0.237073183647054
0.0111831981849082
-0.132047268160678
0.115328380756176
0.152478737100417
0.179258226255144
0.236651984901658
0.00620792188104985
-0.0569876024876208
-0.225263622386616
0.188152521682472
0.0385922697531198
-0.0162264473568967
0.497071928953486
0.00136104732777946
0.202664807950507
-0.250583462886086
-0.0260276146357786
-0.250577726114242
0.445835978189528
0.0551112968785683
-0.0840289533385949
0.567616946648301
-0.225388038713964
-0.054134921919199
-0.0392219443528979
-0.229924438365883
0.0327489402012933
0.0180920588951102
0.0383215531534552
-0.179462147171925
-0.0238820316192564
0.0697367183973687
0.139897353811638
0.171805988843957
0.232500299903406
0.238953356049521
-0.153476470702151
-0.0290254591508902
-0.172532040228327
0.212880803507867
0.0112370129691487
0.0544134273114591
0.41532397202535
-0.0455776221210598
0.122759298925459
-0.116233991028068
0.00121264185628977
-0.330656654982539
0.554738819566714
0.105589578034115
0.113859722919266
0.481909166836086
-0.206783003980274
-0.0206353199664506
-0.0336196716943734
-0.20593248883279
0.0129317014084445
0.12067184581773
0.140433506266465
-0.115075164505718
0.0885468633083034
0.0468905021058051
0.238175387331707
0.102334564625725
0.185409272546234
0.115616995204121
-0.135642409558515
-0.00025171140104928
-0.0429833855260065
0.200683123448473
-0.00238169554613977
-0.0860050574866951
0.293907758420498
-0.0505164491413159
0.159414081920546
-0.0380500468338805
-0.0366202668671296
-0.404722578620099
0.440394477613998
0.170484220688137
0.180493358679339
0.507787391299783
-0.15630536947913
-0.104300971274796
-0.149724376914015
-0.0736291257541285
0.0184112415825724
0.118323475320119
0.154863000308396
-0.0128837790610913
0.189539667227963
0.0394300022185024
0.18647636599819
0.0799514741749545
-0.010421713070729
0.0457661870276614
-0.105583537833697
-0.024709891519817
0.0768331003108005
0.0132292619700354
6.22817915404203e-05
-0.166493661395345
0.0975691270613052
-0.091005893748985
0.0959895549733034
-0.021410231547004
-0.00907323474340129
-0.293355831111793
0.386855390185149
0.251955440060215
0.104069213435364
0.417035555203152
-0.150529518060597
-0.111699424128777
-0.143884416061934
-0.0491284182595186
-0.0136686373008763
-0.0227838282718631
0.120937464965886
0.0238060346089516
0.168266311107018
0.0231927296552342
0.0704820498879591
0.0427934012576079
-0.060628859904579
0.00362382494177282
-0.0470621085583092
0.0320244542936978
0.0614585707763331
-0.0220999181248959
-0.000353265814954771
-0.109290958249028
0.0490549678531567
-0.0744727045140236
0.0862217876382463
-0.0364923963422276
-0.0479450268569344
-0.310274433751414
0.312240117605156
0.255016474352776
0.0349342070972954
0.2975510013633
-0.0775399363276244
-0.0651337682001511
-0.14860586750438
-0.0390547089108712
-0.0422985097200753
-0.0440186832308394
0.0708779044673368
0.0132307882838557
0.0851361357355891
-0.0238723577475733
-0.0108729871930187
-0.0305236372078134
-0.0442581882893187
0.00954859381162038
0.0274753303142596
0.0347136225968375
0.00482125708055171
0.0108243738866369
-0.00140666853722093
-0.0982737756097993
0.035767284961775
-0.0131001525875906
0.0901145502448697
0.0131516877126671
-0.109960202636113
-0.279718002073081
0.190628135194981
0.16014337039925
0.0393119138881984
0.112016351777286
-0.0260098885874518
-0.0772137700338336
-0.113332060332878
-0.04968781208309
-0.0411627533832049
0.0135764633177119
0.038849889875141
0.0536680882961983
0.0219849970927214
-0.00620186064867502
-0.0087130121818919
-0.0535875479462022
0.0256798154477722
0.0270013268294619
0.0267005072265482
0.00337354706924312
0.00140463954424179
-0.00197941461842896
0.00409330687215778
-0.0565975235555667
0.0691276094596427
-0.00364445151119606
0.0515814965633407
0.015382683545554
-0.0620341807311619
-0.185709807648449
0.0521331739906583
0.0554589150823494
-0.00974479319322012
-0.00335473024118173
0.0157737092333914
-0.00427135984830346
-0.00111226655705034
0.0315202891041962
0.00470548130238161
0.0451937048281327
0.00636826595400726
0.0366815598930504
-0.0331545727352329
-0.00423834630084539
-0.00109637257509988
-0.024681991993095
0.00117850552793331
0.00946228670524844
-0.00426173394297691
0.00112373178185157
0.00702604814759024
0.00622520569339769
0.0271964781077216
-0.00181378353194904
-0.0363988842205733
0.00281898182301579
0.032846496595089
0.00199388748064559
0.0376821021853111
-0.0282600140007488
-0.020916835407337
-0.00179488236868377
0.0169245372583313
0.00477777033672414
-0.00358058075582877
-0.00250316130545753
-0.00513529534143106
0.00491939439348195
0.000983534913959364
0.00299630980996913
0.00242688164073362
0.000103134836888778
-0.00409827182773977
-0.000552561536519238
0.00212156075685008
0.00257584801214674
0.000148338240784569
-0.0017299419520054
-0.00230429367953369
0.00317476114744606
0.00149578944303854
-0.00562953980019816
0.00909823813181075
-0.0326319119170919
0.00678508800597367
0.00213349562900253
0.032882605889434
0.000515215545828291
0.00465602211188123
-0.00892967481450826
0.0289270135543438
-0.00379782743778858
0.00479009104392102
0.00333602737922597
0.00262831816202097
-0.00332363730539414
-0.0025566327348509
0.00118575956588396
-0.00366996936917015
0.000445305153551898
-0.00169463759826357
0.00372513469789769
0.00310976103091577
0.00225514093827589
0.00106038381877594
-0.00166248240665234
-0.00399240629055627
0.00192001894130012
0.00296786518536523
-0.00169021257189507
0.00213566522632592
0.00235101650959376
-0.00128252014247558
0.00447325915593519
0.00146394622358482
-0.00458948984854836
-9.51380669231446e-05
-0.00368147443772835
-0.00181293330318198
0.000350314587507702
0.00309825596235758
6.34253779487632e-06
-0.00326994698545608
0.0016733974716947
-0.00137338068390912
-0.00445939407331387
-0.00372660970668718
-0.0042375527513721
0.00106421884162866
0.000525840633458926
-0.0031466362506534
0.0027914541341403
0.000209303747230917
-0.00389299069814351
-0.00441396380259705
0.00192591897645813
-0.00280738422906706
0.00351509344627204
0.00473787573277256
0.00398650625539815
-0.00447886418933538
-0.00385139545027946
0.0025247725449976
-0.00273746881244442
-0.00431159819260532
0.00394845102862893
0.0030259805316718
-2.58126538163571e-05
-0.00151085150309113
-0.00167074245587357
0.00143385604427889
0.00340269777651165
-0.00200205953917826
0.00141607150467016
0.000353672421008585
0.000528216494316932
-0.00159286128169682
-0.00174730001996706
-0.000954229909510934
0.000185812325686415
-0.0031531093117202
-0.00114564897199038
-0.00334865847113078
-0.00074715060630398
-0.0043783849158124
0.0030782714190272
-0.00235481799000252
-0.00345439438529084
-0.00447024220576458
0.00233260058746055
0.00281239368971864
0.00158301456179009
0.00458270538655507
0.00299946761594891
0.00323987792117601
-0.00373592090356984
0.00439127283616296
0.00291006466185455
-0.00125272598212425
-0.0041286053317542
-0.00470754226461562
0.00200031273195266
0.0010227819485426
0.00291905089230806
0.00461024439639751
-0.00177245999477527
0.00380163288627301
0.003423940287261
-0.00458181039301203
0.00146551100515909
-0.00453192160025392
0.000847831396317854
-0.00466234193677065
-0.00399917317299805
-0.00144210459629457
0.00306602034269015
-0.00438151798176583
0.00372461721330928
-0.00269406431445129
-0.00445332351501748
-0.00150405154147764
-4.62754382494092e-06
-0.002327739842603
0.00350750625232366
-0.00399970943110184
-0.000344908216889081
-0.00222394015652557
0.00113763409961665
0.00225745446554817
0.00381516623016953
0.00313802769965926
-0.000206494696410617
-0.00390344705656673
-0.00283050683883475
-0.00250908681314913
-0.00343634969793777
-0.0027891425169861
-0.0038670191961374
0.00114426870173671
0.00266411466343042
-0.00481489274658766
-0.00397722778205211
-0.000230385237913208
-0.00494659471799195
-0.00189907769241953
-0.00276872543432755
0.00942612705400742
0.00332686562046958
0.00356648872755876
-0.00464731481976257
-0.000473441160460852
0.00856989567024456
0.000919476208384108
-0.0196490668047716
0.00380697311688681
0.00384285430177757
0.00892883057794909
0.00418881963881669
-0.00172579998571579
-0.00582652153991354
-0.00882281638834021
0.00366564973191897
0.00216649073822668
-0.0185074493101215
-0.0179856049092381
-0.0267552046380528
0.00519482309261352
-0.044770429153651
-0.025555285670492
0.00478829657897983
-0.0022325603547023
-0.0292207513813697
-0.00561430007891539
-0.0225048600583272
0.00345075689106201
0.0026106181105874
0.0276961637984673
0.0286247445276332
0.0153762767002899
-0.0183831989287063
-0.0184662688287863
0.00731030142992166
0.00525206089066668
-0.0602069366296033
0.048704281830095
0.0375476595384707
0.033274481457685
0.00702245788995213
-0.00163012447264974
-0.0235559440150432
-0.00530509185110343
-6.08611116331725e-05
0.0218789926728254
-0.181481998809485
-0.0461309389526324
-0.093152127797772
0.0172432852499779
-0.112673691717903
-0.0745045394683205
0.0246269273174695
0.00451085078867011
0.00107174553553775
-0.0910717623404483
-0.0405549203073771
-0.012087801813369
0.0580209605668814
0.061084776497604
-0.0120268306552656
-0.0100980331734221
-0.0285653790510468
-0.0183625880757292
0.0110222567191114
-0.00909952180495357
-0.0215756667064724
0.24576360439385
0.124525281679504
0.0304205672568318
-0.00168086081736489
-0.00876762977314302
-0.0412026124626165
-0.0774108889005655
-0.00772484632681923
0.112692716792647
-0.236532434211399
-0.0433709626024683
-0.172788371420731
0.0226959980759866
-0.107629298619804
-0.111487734666923
0.0312951327444266
0.031181599017111
0.0895408573111955
-0.126924758034522
-0.0784405182238696
-0.0403092750918744
0.034387417018333
0.0868822544063947
-0.0132873453763818
0.0213902847532856
-0.0385317384394924
-0.0195284182017195
0.0131838379838136
-0.0137174297985831
-0.00740133722468166
0.194747770592306
0.124267641675938
0.143804050505387
0.0516552982615922
-0.00984669751099241
-0.0994896016829735
-0.046036573154124
0.0502389242309565
0.102391972740413
-0.293183414369463
-0.0214984119279233
-0.236388881218796
0.00770475484816887
-0.146824748304477
-0.191216196791437
-0.0299680836072211
0.0545116384218648
0.0838402025525166
-0.177656601323481
-0.0147655066575404
-0.132668979900691
0.0670570636230308
0.0834554032775281
0.030396614940448
0.0184255459933577
-0.106337973082591
0.0316991812630335
-0.0686779790012906
-0.0356167658143368
-0.0281458367185468
0.13753166533979
0.0100928846456528
0.255410269617382
0.141531166963192
-0.0379190125879648
-0.0902764524638601
-0.0355873927660169
0.107976020620826
0.117347642543883
-0.411096131772146
-0.110142144149179
-0.318631774790331
0.00333868464124326
-0.279565031029838
-0.187750328266626
-0.0621929696788868
0.106821507862972
0.0162241784400794
-0.198312235261055
0.0884530277010574
-0.221839168414459
0.0255534496349306
0.0917738402031893
0.0308785682733739
-0.0173061097851129
-0.0547760515765136
0.0612612613266246
-0.0149457820866785
-0.0699702016116714
-0.0999344765749138
0.287793835473192
0.239161332325735
0.187344970718596
0.101783712165346
-0.120761505285948
-0.1937758620042
-0.227285760827829
0.068316635073297
0.350865543322894
-0.421636315315821
-0.054988434165343
-0.473058411238087
-0.0602092515018034
-0.333666497936052
-0.0906665403143416
0.122182245156277
0.143811834530847
0.209306332979049
-0.140640640326634
0.221949952483773
-0.237597860348896
-0.0183705534976246
0.0223717184247049
-0.0921532863216934
0.062280821575063
0.0744270142269892
0.182908703130004
-0.103170346860613
-0.14221243878904
0.114852369935764
0.295779958365901
0.33327403057979
0.300246369864107
0.103558818356651
-0.356729305942249
-0.226071426536979
-0.428836888171682
0.00174494970739934
0.662747573775641
-0.24980614762809
0.0349437496133678
-0.556938930486495
-0.165625897151378
-0.303686873907415
-0.27843816826135
0.367722037843243
0.155681832815503
0.207834596999111
-0.184251340865181
0.285686762876209
-0.19034378807578
0.00875338564046839
0.0900690340261008
-0.179071169508738
0.215195748006414
0.00570575326010295
0.155951623010226
-0.0604128471565601
-0.148301100961458
0.0952997223122975
0.183341858027066
0.383356984876347
0.593913944656085
0.0324546802201632
-0.463656286644379
-0.181923918656823
-0.365375228705096
0.0507910044129494
0.3896468531649
-0.349569909956049
0.0360752380663038
-0.488555348215611
-0.245654199488317
-0.0415204668807849
-0.421380108787275
0.719822392854795
0.10364101574427
0.167797824824902
-0.341473243236277
0.0781281509552049
-0.315514133466915
-0.14972149788427
0.243161003254025
-0.182862142867785
0.166352681529702
0.0595328414540659
0.039633847279667
0.0793046068575286
-0.111439852059815
0.0407776850214471
0.0423378333312703
0.303357864487895
0.534433874720401
0.110431424359579
-0.329844625191036
-0.114092893329165
-0.278786489434641
0.0897059176394096
0.267014166540141
-0.342052850963721
0.027356621677657
-0.577269430403603
-0.435136953275356
-0.110382288825042
-0.328574854138774
0.695986500974452
0.0742907954391575
0.0561454269934949
-0.126577245778572
-0.123484190413163
-0.177637304143602
-0.130630925783776
0.0549917789235011
-0.130317197161763
0.290806407216492
0.188058974375985
0.182364862781749
0.0416558469421769
-0.114358674179308
0.231464716045618
0.0949060576950668
0.296612849317315
0.446970149339562
0.0386617985769632
-0.177853489594683
0.0833736523692657
-0.457542919827932
0.0324115238747949
0.0295472478359206
-0.362151989513398
0.198620684607655
-0.422726196354572
-0.414879666099568
-0.268340543909474
-0.218620154443593
0.350124235355611
0.0455497361631224
-0.227240473446781
0.13556037827862
-0.213477635071468
-0.138701507628492
-0.054698879055478
-0.0115079174408882
-0.146970191777687
0.00578637323940435
0.249120437783165
0.183694149954742
-0.0473795625285861
-0.141646689160685
0.130477098060209
0.24053539315774
0.276213555453134
0.228282153239606
0.0474791056796468
0.0616787067932503
0.119127091252351
-0.470252329092948
-0.166578371284408
0.134301777588368
-0.156577487879457
-0.0153318535571656
-0.309895554307108
-0.369373304336662
-0.264312230859832
-0.109051638735792
0.229598202505862
-0.137844058285853
-0.0961600677350478
0.24101373235746
-0.150031405449275
-0.136416131847626
0.0279856196068878
-0.0164933675412723
-0.18580577352494
-0.0394942529739643
0.245216928235137
0.268298622972837
0.0778193959505749
-0.199206137931183
0.215978825495885
0.0942725840484496
0.00910690447016234
0.181983551398572
0.00011968192786946
-0.189604788581738
0.284784243540877
-0.291990512104017
-0.0892878335775963
0.062753356855612
0.104650307617296
-0.0826419134864205
-0.233706897113877
-0.214402472157483
-0.515329194238958
-0.13049339484816
0.159696480046639
-0.553285951932613
-0.176418606110439
0.0128207462610643
-0.418747500068047
-0.34362309427164
-0.121763696369647
0.377370564503793
0.246686561715174
-0.225357752895831
0.224259131141056
0.234649535738819
0.257854089029632
-0.192464777862684
0.28167824115125
0.0200732354368627
-0.262830413718456
0.121275873428105
-0.169412996711955
-0.227825142528539
0.384360588033426
-0.0663871784307156
-0.274470401980069
0.119623781839055
0.239573755593157
-0.205850434597832
-0.101816888150608
-0.273141461446523
-0.588563210225289
-0.00723963228104479
-0.0735938049186527
-0.444076652227527
-0.1725245493103
0.030444020972169
-0.257472092245993
-0.283827630060327
-0.110649085461053
-0.0369001787297351
-0.0336305933746251
0.14231356772436
0.311955230783505
0.267100397734639
0.158738033761386
-0.189301286473336
0.465455080793322
0.149946764426761
-0.216949033734205
-0.135151324560533
-0.241432674368615
-0.177260329874315
0.0941364226809088
0.178191300561849
-0.402271614331325
0.0750774312659367
0.255246173842102
-0.0289883919926446
0.195902674231058
-0.300519806964429
-0.378853252453878
-0.136839862492397
0.0528406163879113
-0.232919638692845
-0.274323094925008
0.168941254797294
-0.0297406685660657
-0.0485163808133908
0.0141178421616348
-0.0404515175010369
-0.152163192911589
0.436150127339515
0.135385022619897
0.180859216272964
-0.00167908624148234
-0.131173929465036
0.331014657020045
0.0835105988278516
-0.381152463735652
0.0237681396657039
-0.197526370394355
-0.379504865958081
-0.184546486492176
0.185540846717206
-0.554733939846775
-0.00983299373139813
0.262151180784634
-0.0441806113734595
0.23328408513983
-0.217125636046425
-0.523413162681369
-0.0125736199178619
0.0104406953398821
-0.206591382717647
0.121423809382927
-0.208037419382805
-0.212680861209306
-0.0610432849715893
-0.0400822272600108
0.39052065072424
0.0417349526503982
0.196888126422186
-0.086152521944572
0.00738168602779711
-0.0194364050966512
-0.0994071236541905
0.185547146036816
0.0739966818249871
-0.141038593940145
0.0917443670260706
-0.124641822723669
-0.191269941505895
-0.453738534919977
-0.00032122711551208
-0.196338793779576
0.115203059264386
0.45794016648789
-0.0416860035556749
0.00689227675286951
-0.0260608405185643
-0.380951311461261
-0.00101740524492738
-0.0797447044146943
-0.204635359860002
-0.0721976267725824
-0.0839499453682449
-0.318601967293689
-0.202227256121121
0.075724933264474
0.275390218829434
0.115317697194905
0.0244609620906622
0.0737840080712672
0.0445432119200908
0.0629322188402038
-0.157605831932165
0.0596308461642667
0.421438149527068
-0.105642911594965
0.109322915870719
0.0581372651680876
-0.057742245995518
-0.327613806399482
0.0374083322356129
-0.0265072366926576
0.0143922362473163
0.469552664155809
0.0368131884087603
-0.129059097618472
0.00458809917647845
-0.14637290456699
-0.0542752800300715
-0.188438020823898
0.0307120909662771
-0.142254818952277
0.0462310310531106
-0.302978950270422
-0.0418214322802497
-0.0191791669815203
-0.000962756430729814
-0.00670133625877158
0.0166288339831954
0.24724912548193
0.188586585825836
0.0975870947806126
-0.148519707589751
0.100029976335744
0.346690499522411
-0.22889757937635
0.00101974183784319
0.174844604130774
0.0167938181680467
-0.465044194095031
0.0239430899309758
-0.13176945580682
-0.165198515691799
0.385665500582935
-0.130010055825607
-0.222318844216274
-0.112487440713332
-0.0577421263589678
-0.0907454001359496
0.0130057027362778
0.0503616392739079
-0.148391554936082
0.108315352324539
-0.318342938292589
0.063950140855938
0.0938793216198019
0.121211742243625
-0.000964820205549971
-0.239638149800325
0.105700646269065
0.256788363199211
0.134967661528975
-0.0749123894580205
-0.0614428165294536
0.0746059945323456
-0.207392103358143
-0.0291875608673968
0.195036871135773
0.0487438114660937
-0.400643737336315
0.284491850344922
0.0474355202251931
-0.172283490943552
0.427041697082337
-0.101907661282207
-0.243591597682068
-0.116414118294699
-0.0104093214852421
-0.050445533807382
-0.165300144973029
0.103604951290276
-0.0141583265528563
0.0186086570909554
-0.0756838405819132
0.118040994211039
0.0877342230703103
0.101801055653941
0.0572549138477499
-0.223817771241508
0.0139534987767243
0.162507265898251
0.0792784481524098
-0.0776744150764234
-0.165466823155148
-0.00674082319814054
-0.19578520897382
-0.0581277711412942
0.123517500568112
0.156342853021202
-0.352307621385834
0.39804452279485
0.111894804397668
-0.0945370868520276
0.556420878396194
-0.0636962481153784
-0.151750233377616
0.0145484230291188
0.0187284815545208
0.00100804267262183
-0.116585931873605
0.125571940086847
0.0403350315356293
-0.119550592387333
-0.0504007264626978
0.0645907305658603
-0.00549209266995904
0.0800959953263664
0.10388758110447
-0.128894577022809
0.0113095614755679
0.0973246754086321
0.00955083880936864
0.00248020595824731
-0.175438562153688
-0.0923084760691805
-0.0534919800902294
-0.00775943316699881
0.123303800173701
0.115682448242666
-0.212782062862799
0.451834139774299
0.137575819150437
-0.0917556197047972
0.190170882311256
-0.068030524792237
-0.115641499918567
-0.0811584227596272
0.0743926887162429
0.0189542113678836
0.255644422795953
0.10699869819955
0.0447456540247158
-0.176108373210329
-0.115857629321456
0.0212166019388963
-0.0210286557689669
0.134862272199847
0.0754082168932276
0.098150723726548
-0.057786412099175
0.117398131572144
-0.00824189770471111
0.0204079590261346
-0.144116511688302
-0.0597912491160452
-0.00636256740007208
0.132791330482755
0.0507262610075647
-0.0385827925422738
-0.0846019689365067
0.177541974821092
0.0628404943793697
-0.021430669161285
0.0387944934394599
0.00286687868292358
-0.0517970070050819
-0.0218119546179162
0.038755223281328
0.0235902373776949
0.0881317317737386
0.0194549802458043
0.0185441282289621
-0.064555297213743
-0.0303279890177479
-0.0898925875724093
0.000369481056458117
0.045130152895187
-0.0060786296379183
0.0100705700389155
-0.0170413910082016
0.0451472793252868
0.00236615613427374
0.0354966985638226
-0.107910111125176
-0.011749935901638
-0.0102198287304026
0.0949386341707639
0.0151193271885502
-0.0205808351119857
-0.0244035290136962
0.0773448482428358
0.0240152808967569
-0.00445888284540219
-0.000539333013917013
-0.00359935225054246
-0.0100180109074491
-0.00805757289472315
0.00253856797024454
0.00177383021870024
0.00303430432427639
-0.011845462181991
-0.0188786092779792
-0.00451201042397976
0.00418961156234925
-0.0409027096370414
-0.00442701287662333
0.00349346191584248
-0.0236879503530247
0.00179861401792817
0.0198594635099387
0.00963986650561265
0.0036806133915307
0.0132249143533931
-0.0010013704742943
-0.0166609339014841
-0.000586714181091427
0.00940365905413759
-0.00405846625705856
-0.0370510172663196
0.00145514448179905
0.0307446275419943
0.00861322087191657
-0.000101365266835238
0.000244115578548394
-0.000411558962593599
0.000477591129740469
0.00164360588470161
-0.00540449736912301
-0.00550793052698489
-0.00700623529911856
-9.67198532385844e-05
-0.0106406270716758
0.0053018013269822
0.0112286305521975
0.00046757982904899
0.00368591599760818
-0.00108766601495098
-0.00329212992003439
-0.00337352366710282
0.00733872050443859
-0.00451934108282732
0.00205940345463747
0.00291247783845093
0.00218744348569772
0.00953932209287449
-0.00228755437997603
0.0219730714148759
-0.00429819311219158
-0.0102172627518025
-0.0243162275899537
0.0176542995012089
0.00589383620934212
0.000678356542293855
0.00152324157692296
-0.00092733802596248
-0.00469008544799254
2.37476415110488e-05
0.00452517946532586
0.00116628944986249
7.95029737543777e-05
0.00318144645808567
0.00346523814918667
-0.000332909483791525
-0.00440068872349147
-0.00340004276069058
0.00180791827329764
0.00391541083174399
-0.00385434546785841
-0.000938843094520643
-0.00479127105095267
0.00144329610053171
0.00446116408386121
0.00481398618631106
-0.00168136251915803
-0.000401349891624614
0.00409654191109534
0.00292892495332224
-0.00239939679788959
-0.000858012612855701
0.00115861940415705
0.00308763589907317
0.000829397442339283
-0.00321419165321286
-0.00143474104955261
0.00286667958240517
0.00112085917914569
0.00248229229185986
0.00339502773080618
0.00072703183234757
-0.00283186937497278
0.00408916686714771
-0.0012379748770325
-0.000566845877807198
0.00352807352361963
0.000552980795185836
0.000140273335882034
-0.00221620070623289
-0.000698416661831149
-0.00242240693500589
0.00190231883582604
0.0023769766642891
0.000383354784392642
-8.71730194598113e-05
0.00166130239962074
-0.000710216732147191
0.000629091248724347
0.00056478086550188
-0.00482165623201655
0.00439537869184926
-0.00388768066650124
0.00106598885217607
0.00376495993521441
-0.000855171989697368
0.00404057654427555
-0.00516396309927383
-0.00275860886493237
-0.000121249434077182
-0.00361856698098241
-0.000187694496787863
0.000928767886010151
0.00425200493154372
0.00197569234622155
-0.00454129504125942
-0.00128022288139817
-0.0018946150968283
-0.0046456188405192
-0.00231418029351143
0.00466851849298392
-0.00326673750026311
0.000819385122671833
0.00142457964468319
0.000487621293430026
-0.000247473002206689
0.0050785806840757
0.00308349053889084
0.00563040247481162
-0.00381079917050613
-0.000836094004560504
0.00143319498262162
-0.00494758513989911
-0.000754703573734585
-0.00552966445173177
-0.0181940728778073
-0.0518061776822904
-0.0108292459356539
-0.00442068564358091
0.00681375898483473
-0.00180930825911379
-0.00182025249508182
0.0177900128932792
-0.00967858455195368
-0.00960737818688753
-0.000546600544497335
-0.0149492516017448
-0.0129311264652956
-0.00107599686972175
0.0251768801835657
0.000355888399921815
0.00857446207785406
-0.009917602620458
-0.0026838182277304
0.0242592912824377
0.00115357441064483
-0.000612856436838259
0.00946573856450711
0.0354546363360275
0.00686430946175173
0.00921869072727002
0.00590799955054419
-0.00116782516081135
-0.0365348016857864
-0.00583206790721122
0.00451852609086036
-0.174622562617225
-0.0489979008016187
0.0177371639091914
0.0495453618533691
-0.114700271832673
-0.0631150297775176
0.0072112237665676
0.0269349483148627
-0.00117741380872148
-0.0109631821778487
-0.0402605027202586
-0.00915436264253073
0.0329167660332853
0.0448234901695194
-0.00541142064900373
-0.00921241925272372
-0.015656922621672
-0.0449737418366438
-0.00787773637781728
-0.0145057066911157
-0.0172630254006236
0.120272484583587
0.19503565396252
0.0790891125171305
0.0523638278385989
-0.0050284293321212
-0.0560603133990928
-0.105806023278735
-0.000539267571826454
-0.176553183422519
-0.238919851238573
-0.129302549281983
-0.0461547706500384
0.0488662654948462
-0.153764034682784
-0.0578097856751677
0.0704152463415329
0.0280114402866669
-0.0123109082602279
-0.136302973468625
-0.152672330524323
-0.0575368468959484
0.0977581663759129
0.114096248131286
0.0126513147390736
-0.123799183649356
-0.0225818703141537
-0.0188725532853956
0.170409261893296
0.0171984280242732
-0.0470323803182268
0.304883761102629
0.324925891853804
0.0347753694617687
0.0703202833763938
0.00161288850786887
-0.106748702495613
-0.245339446661423
-0.0262422986042948
-0.0804913883670723
-0.230394574184741
-0.0701351208745573
-0.133590602214479
0.0124726271440363
-0.137216922514687
-0.0797317395313341
0.106215028286575
0.0419291725906718
0.110967331326793
-0.178359196938972
-0.15989786544243
-0.0749701388841795
0.0572179624097295
0.138379606439657
0.18383504855155
-0.19858832810927
-0.0828447196602698
-0.0142347608926437
0.173909606556902
0.0113346362027463
-0.0913695113835823
0.329584421727227
0.293628993790679
0.186839780834128
0.191141461993459
-0.0305847687232152
-0.156785140448926
-0.159293650392495
0.0231175471727233
0.0179312840031265
-0.463639679476013
0.0853133556683293
-0.208812698777014
-0.0386750873075865
-0.258537689486955
-0.194415831042492
0.117298202634265
0.0579966122993901
0.131808329826084
-0.208598846528967
0.031131409117604
0.00415180118394163
0.135125550867059
0.00234317302997642
0.172106331009613
-0.203688911362896
-0.286254792906686
0.160500415152253
0.0863931307770159
-0.0589742457703986
-0.098762774547092
0.418256170524757
0.327233912774187
0.288384877058461
0.137925903738332
-0.117590417509999
-0.19191709279081
-0.127637330124506
0.115718289787178
0.244464107336794
-0.356044129489689
0.104553358983641
-0.33675531441273
-0.206708325568624
-0.315889160269146
-0.197717147291042
0.181267279340642
0.27358404026575
0.185013904818702
-0.235064207288039
0.0246994418181845
0.123064794105398
0.116185100210195
-0.0976033730662552
0.1058197598262
-0.191845368294149
-0.286494783416062
0.261442239797961
-0.0926887557105224
-0.0674444359284488
-0.0958535438916039
0.322044942361006
0.325861295502662
0.285167650787509
0.0931065316571842
-0.309074331631972
-0.175876725266614
-0.185068248009074
0.0789191783362401
0.358992090023852
-0.0141041477122701
0.155938998605326
-0.600212909246028
-0.18088297107625
-0.151230529486968
-0.184641584159132
0.487783173962668
0.309632913577261
0.218689141601148
-0.175526795457848
-0.0745444276271245
0.0316468388096256
0.02968906815438
-0.0715873722439883
0.00436727913311714
-0.128329483614494
-0.118184356335309
0.285288330034719
-0.0410101422420264
-0.127536005785557
-0.0941472784628773
-0.030605522729384
0.16432238351023
0.186125198881356
0.18700653613135
-0.521336530034523
-0.126062966457221
-0.312802396141322
0.18573392198254
0.450147346268453
0.0894308071274115
0.151796965642227
-0.724751549942631
-0.407126487664616
0.0277961625485335
-0.291421680236607
0.629367428865358
0.148402811847119
0.017066707879221
-0.28516341219959
0.115754103285184
-0.112564531790784
0.0334730405938696
0.100101318765789
-0.0150426900438351
-0.352295953817612
-0.204227651118816
0.203329921544519
-0.0624267169136168
-0.234300540030382
-0.00468843905568001
-0.123961364799883
0.267309467261508
0.525349396795101
0.386947016227129
-0.69638275756214
-0.0839870845345489
-0.332141626597977
0.0658617166887304
0.0619260305990558
-0.104653124056026
0.0795381055409191
-0.617541418600185
-0.664916026808744
0.475930072234024
-0.432512015826295
0.994706835407889
-0.0519970138079153
0.174987635232221
-0.207112251034339
-0.162959618881825
-0.388860729735247
-0.147652019757098
0.240632528058936
-0.255409262853003
0.0687377022413172
-0.0334077743944815
-0.0117510777843144
-0.419441634120817
-0.440006710644995
0.19265029672694
-0.295646612907287
0.325179054468398
0.356591516519599
0.0987815201290272
-0.488706527132942
-0.210928476207329
-0.169744926602373
0.0840632867116276
0.214231020356443
-0.234466906757435
-0.0106060850239103
-0.535587161168034
-0.85882793247625
0.211773678020043
-0.216587935977652
0.506828105664429
-0.126065884655459
-0.087297681679024
-0.0956907044047344
-0.132239429302467
-0.303615734671725
-0.121629422997322
-0.0861296952060497
-0.196914185050345
0.0856271946503653
-0.00276021063204272
0.080506487868576
-0.315371730335491
-0.757081150515318
0.382131949451544
-0.0563782467702956
0.309267828585627
0.149410790451041
-0.0437689014687139
-0.134057173799579
-0.326924040434027
-0.218960882896728
0.18567355595622
0.338575844798745
-0.146924348505485
0.0540538509651063
-0.275073887031671
-0.648251498751888
0.219795458621407
-0.206387447378639
0.344050762504816
-0.191363021310043
-0.0429406069290131
-0.0248153002616238
-0.16545601915252
-0.312313623848983
-0.724340638937338
0.0997557724273561
-0.00905058374537753
-0.282869820420592
0.20345040068996
-0.27295519725344
-0.147385892420132
-0.912630829152442
0.0412048176532465
-0.163211190917694
0.172579905467189
0.0541497860146275
-0.245313304798944
-0.297308126156912
-0.902252300854291
-0.299203544310247
0.0237542064367518
0.181272424055038
-0.191437265303951
0.0399535488600357
-0.395432987353202
-0.233572662524911
0.0970658910494164
0.0354707130705797
0.354118998327162
-0.173404929462963
-0.0129429745188971
0.01610161097977
-0.00133941153050585
-0.10170645336595
-0.364469147283815
-0.0227860134314742
-0.0488253297778848
-0.309601351315869
0.311422966257504
-0.0817567146579945
-0.215932742526087
-1.27924471543659
0.192100486444966
-0.0896695963034535
0.0996072408423897
0.0908744695922414
-0.50108009186852
-0.430986858576649
-0.472416653178248
-0.256528460413165
0.126343870837652
0.0286696849500511
-0.129805167536588
-0.0109087733543521
-0.508529636085572
-0.0074774964918095
-0.0525915793060803
-0.0428894644457087
0.0621562941008116
-0.433224884608293
-0.13263359312194
0.0494137350339607
-0.324610922522702
-0.0410977289920779
-0.151169072129536
0.0248842759805632
-0.0280815865080918
-0.136940118357547
0.161977824522403
-0.415391512408712
-0.127386443532575
-1.2712228249549
0.190610758119436
0.271619007435327
0.26980151783494
0.190614619705096
-0.827071627442277
0.145505894403416
0.10189543391984
-0.341879427174903
0.0857565344121495
0.0594292095799029
0.0953733869327492
-0.285845311353309
-0.425243351195909
-0.263616105663347
-0.0283727181977101
-0.123244867983482
0.463236198095982
-0.50762723046417
0.170977713826278
0.105720927234017
-0.275537497256694
-0.298862881870978
0.0935847743170042
0.218992059201213
0.0706721340676215
0.0957380880877417
0.0360005355155355
-0.452470869828774
-0.336667423975552
-1.31765960950531
0.207891623402479
-0.0199275673408021
-0.104421718144938
0.226982454195069
-0.563168214456808
-0.33887206448874
0.19491092477038
-0.0874573981244508
-0.350029031182614
0.0839374334896988
0.479117576861219
-0.181355935657818
-0.225769144657731
-0.383739886618754
0.377147308246474
-0.170586872472915
0.327359085102762
-0.550555008874063
-0.248302835020596
0.115247394707692
-0.166002868875097
-0.29302926698001
0.0667470049816657
-0.0229968975113129
0.0165783113501368
0.145566188569702
0.362709400194633
0.202635742627118
-0.139901612192514
-1.44765459468829
-0.153292017583424
-0.329443681135759
-0.703909188849388
0.278259565759111
-0.0470439266811899
-0.656741179209974
0.316988835862586
-0.0246287314710881
-0.473208510531787
-0.0119564978323191
0.224255970179424
-0.0505175495859653
-0.244349425933417
-0.532352726056359
0.393692302223539
-0.23623465889951
0.0516435338672632
-0.485904887770986
-0.235520792609322
0.0809632615041755
0.21110792303562
-0.199703326216492
-0.195125029944742
0.103404368158594
-0.0927949374010066
0.0688014746409105
0.346602888065941
0.551641937190241
-0.17517472030474
-1.19648908487047
-0.188185749710191
-0.488628755297048
-0.536688532974736
0.445733656792107
0.109250240328339
-0.468345542287429
0.108132719584832
-0.332957779926628
-0.688525153632985
-0.112503247379075
0.131328373314928
-0.0687444224810793
-0.450494672392727
-0.508266811717404
0.0119178239936431
-0.106820432764033
0.0196854646157363
-0.434440958311002
-0.286984100966634
0.0983413473210483
-0.00270439981394927
-0.534353430020454
-0.403239130058503
0.0163081657821736
0.0109089363196471
0.029398083307401
0.227556685393811
0.605556159875415
-0.047826098618898
-0.737141859220685
-0.140031164698716
-0.249786862939875
-0.304880514075071
0.175767097004641
0.171006668891335
-0.474626271988354
0.0343776644879488
0.0210834045201184
-0.265250170527559
-0.057929802453979
0.387866868059862
-0.0734984942631454
-0.405895364669833
-0.186120815375852
-0.0327191717623093
-0.00335167381605362
-0.0158767087730115
-0.18907874564946
-0.297432943727904
-0.138288726959282
-0.151428016471034
-0.289546457311965
-0.322899935766132
-0.0713150101897654
0.115695491465448
-0.0206500236424833
0.197314038209347
0.80388693252184
-0.0972149005985667
-0.307722643727174
0.0325203200620417
-0.169635311564593
-0.444279229015784
-0.0998797067887471
0.387830759387803
-0.0646757028785328
-0.171976742966157
-0.0204896880812034
-0.0855295658401149
-0.186352145537707
0.28458527439821
-0.175469975157753
-0.159285534137742
-0.267122022961387
0.0704230312318559
-0.187345031409999
-0.109726603412347
-0.144669932173042
-0.182814985877524
-0.171748998864673
-0.0493889685336368
-0.294137235804581
-0.185789682029344
-0.10565037191908
0.082060881182819
-0.058856590983717
0.286377148057854
0.596795438557585
-0.0405250064548722
-0.169040939647782
0.405155632281636
-0.203365040824755
-0.279075083911347
-0.0147166074386322
0.319163676302122
0.110681839079391
-0.129638864891812
-0.0280707596972514
-0.081377718437346
-0.258442248885161
0.622850815390938
-0.154972654413271
-0.126404467210491
-0.0622526567095683
0.113271063317372
0.0396433796716269
-0.157448383190503
-0.0300567465914441
-0.181908463179417
-0.25787488366851
-0.0845603895680849
-0.15350642821401
-0.0867996487045815
-0.0355650025911081
0.148127413889911
-0.191117912650045
0.108650722933733
0.462673619654311
0.0461784035339334
-0.0877025236598594
0.17999913167976
-0.378579187566422
-0.237969013941532
-0.241751824356696
0.22879419628373
0.384433111306535
-0.0143864362170817
0.304334637272098
0.0563229378230112
-0.267605401334523
0.709856680129473
-0.197012901339467
-0.087834748114206
-0.0834107671736922
0.041346834281605
0.168844001507558
-0.265906607062926
0.0253685968038699
-0.0297705971824095
-0.288913053513277
0.0134230772433073
-0.0338166418033105
0.0352561982017726
0.203849823119216
0.159864759223689
-0.278774926534249
-0.192091331008019
0.376363620008922
0.0353126039194028
0.0153300958284585
-0.0379581070467942
-0.179591665673984
-0.0673459072053094
0.0231223367862736
0.213335489780585
0.468689209019943
0.193855149509464
0.472690003632258
0.0514803708087508
-0.173818642524128
0.31901008558346
-0.156735287496327
-0.0796821039901799
-0.131373754547899
-0.0160283165599366
0.040027413937598
-0.0337844832359591
0.0534784722581167
-0.0594552690620023
-0.242396212512146
-0.0232720124139739
-0.0396041806650323
-0.0593849616759977
0.158920541818762
0.0578694288725015
-0.00467611289823431
-0.198676622108905
0.193066570534049
0.0884759688435592
0.133262598911765
-0.0904658666902119
-0.0386135980716167
0.0515518675205537
0.251154096073559
0.118002091917443
0.168233292327769
-0.0633276198190523
0.244364279034173
0.0821933156540922
-0.0908945504413766
0.0698471306303325
-0.0532708705015113
0.00752464398299929
-0.0839802897773736
0.022414029891662
0.00975572688266393
0.257397515889511
0.0360331744376624
-0.0398212070760045
-0.112748764575612
-0.017676741804907
-0.032144632883026
-0.0543763206583782
0.0901138893566179
-0.0630200541847217
0.00922459876516512
0.00172390037534713
0.0749812288362157
0.0189312945711543
0.0540160108032134
-0.126123503641309
-0.00214460252762889
-0.0176432812160387
0.217216501197218
-0.0054242740093573
-0.106352968963707
-0.0462488243710758
0.110511707331494
0.0874345697816179
0.00441631491816399
0.0176195089610487
-0.0122928141333535
0.0232435092862178
0.00550453549580135
-0.0151139538044311
0.00137165204143356
-0.00428677654224546
-0.00469149591867421
-0.0447795789207259
-0.00914012167567496
0.0294855876488683
-0.0259915918540729
-0.0057674571163187
0.0115113963135343
-0.00500512275124046
0.00701946804991891
0.0163963339157203
0.00869997610115827
0.000384181615023255
0.0284774725391635
-0.010532861309668
0.00929508500902343
-0.0133174512446053
0.0911401361535973
-0.0135828858309782
-0.0260434106016717
-0.0720075909385773
0.0538970484803126
0.0330888794975125
0.00679662137313894
-0.000643415826502085
-0.00600905072476202
0.000631588242249189
-0.000390361852211675
-0.0111282239804695
0.00312643436430783
-0.0106660012693956
-0.000392200734077923
-0.0206881504012014
-0.00444368190820874
0.011993857922671
0.00410243114751204
-0.000900392284534857
0.000163322122781508
-0.00182582575871796
-0.00375240050826299
0.00391730326200726
0.00198710129619495
-0.00586034037467247
1.7199330679747e-05
0.00262901746952023
0.0076514949510474
-0.00368273751984986
0.0296155931790423
-0.00314095344873473
0.00372662703117142
-0.0269652980171411
0.0168897042430754
0.0179022620958362
0.00324280682372918
0.00269793857688561
0.0003975148687719
-0.00157516188631358
0.00116776445865199
2.46326467847523e-05
0.00401689143646196
-0.00261238806709426
0.00428711304669948
-0.00110610909125063
-0.00335844751282637
0.00040518491447733
0.00379269010045709
-0.00466176527923399
